{"learner":{"attributes":{"scikit_learn":"{\"_estimator_type\": \"classifier\"}"},"feature_names":["AMT_INCOME_TOTAL","AMT_CREDIT","AMT_ANNUITY","AMT_GOODS_PRICE","DAYS_BIRTH","DAYS_EMPLOYED","CNT_FAM_MEMBERS","EXT_SOURCE_1","EXT_SOURCE_2","EXT_SOURCE_3"],"feature_types":["float","float","float","float","int","int","float","float","float","float"],"gradient_booster":{"model":{"cats":{"enc":[],"feature_segments":[],"sorted_idx":[]},"gbtree_model_param":{"num_parallel_tree":"1","num_trees":"100"},"iteration_indptr":[0,1,2,3,4,5,6,7,8,9,10,11,12,13,14,15,16,17,18,19,20,21,22,23,24,25,26,27,28,29,30,31,32,33,34,35,36,37,38,39,40,41,42,43,44,45,46,47,48,49,50,51,52,53,54,55,56,57,58,59,60,61,62,63,64,65,66,67,68,69,70,71,72,73,74,75,76,77,78,79,80,81,82,83,84,85,86,87,88,89,90,91,92,93,94,95,96,97,98,99,100],"tree_info":[0,0,0,0,0,0,0,0,0,0,0,0,0,0,0,0,0,0,0,0,0,0,0,0,0,0,0,0,0,0,0,0,0,0,0,0,0,0,0,0,0,0,0,0,0,0,0,0,0,0,0,0,0,0,0,0,0,0,0,0,0,0,0,0,0,0,0,0,0,0,0,0,0,0,0,0,0,0,0,0,0,0,0,0,0,0,0,0,0,0,0,0,0,0,0,0,0,0,0,0],"trees":[{"base_weights":[1.2898541E-8,1.1891352E0,-2.0334361E-1,2.4819121E0,7.361799E-1,5.875072E-1,-4.0901646E-1,3.5077076E0,1.9862658E0,1.6154557E0,5.392423E-1,1.1290612E0,6.3082986E-2,-1.6641045E-1,-6.175688E-1,4.6006303E0,2.9841278E0,3.5712814E0,1.7254097E0,1.9853987E0,8.397546E-1,8.348872E-1,1.3869464E-1,1.9668732E0,7.628748E-1,7.1711785E-1,-8.423169E-2,6.964685E-2,-4.3749538E-1,-4.480087E-1,-7.1666676E-1,5.193609E-1,3.1556255E-1,3.2844728E-1,1.5724108E-1,3.8447195E-1,9.356442E-2,1.1168029E-1,1.9789152E-1,2.2565274E-1,1.2689169E-1,1.0492982E-1,-3.6938507E-2,2.1517609E-1,7.5518586E-2,3.2719072E-2,-4.200313E-2,2.2556229E-1,6.0127705E-2,9.2896126E-2,7.828153E-4,2.0214573E-2,1.02586225E-1,-2.9239058E-2,1.9054396E-2,2.4500735E-2,-2.6530901E-2,4.7890972E-2,-4.776826E-2,-6.0676217E-2,-3.137486E-2,-2.5587494E-2,-7.4123986E-2],"categories":[],"categories_nodes":[],"categories_segments":[],"categories_sizes":[],"default_left":[0,0,0,0,0,1,1,0,0,1,1,0,0,1,1,1,1,1,1,1,1,0,1,1,1,0,0,1,0,0,0,0,0,0,0,0,0,0,0,0,0,0,0,0,0,0,0,0,0,0,0,0,0,0,0,0,0,0,0,0,0,0,0],"id":0,"left_children":[1,3,5,7,9,11,13,15,17,19,21,23,25,27,29,31,33,35,37,39,41,43,45,47,49,51,53,55,57,59,61,-1,-1,-1,-1,-1,-1,-1,-1,-1,-1,-1,-1,-1,-1,-1,-1,-1,-1,-1,-1,-1,-1,-1,-1,-1,-1,-1,-1,-1,-1,-1,-1],"loss_changes":[4.415014E3,1.5594905E3,2.5364456E3,3.4455908E2,3.4128516E2,9.140045E2,6.2601685E2,1.144126E2,1.875282E2,1.01948975E2,1.9123306E2,4.8426294E2,1.577051E2,3.6617566E2,1.1148804E2,4.4177856E1,6.0236694E1,4.343994E1,6.0151E1,4.4486755E1,3.0368317E1,9.592853E1,7.253127E1,1.88281E2,1.3836462E2,4.76326E1,7.648775E1,1.7976497E2,9.8316864E1,5.2181213E1,4.734424E1,0E0,0E0,0E0,0E0,0E0,0E0,0E0,0E0,0E0,0E0,0E0,0E0,0E0,0E0,0E0,0E0,0E0,0E0,0E0,0E0,0E0,0E0,0E0,0E0,0E0,0E0,0E0,0E0,0E0,0E0,0E0,0E0],"parents":[2147483647,0,0,1,1,2,2,3,3,4,4,5,5,6,6,7,7,8,8,9,9,10,10,11,11,12,12,13,13,14,14,15,15,16,16,17,17,18,18,19,19,20,20,21,21,22,22,23,23,24,24,25,25,26,26,27,27,28,28,29,29,30,30],"right_children":[2,4,6,8,10,12,14,16,18,20,22,24,26,28,30,32,34,36,38,40,42,44,46,48,50,52,54,56,58,60,62,-1,-1,-1,-1,-1,-1,-1,-1,-1,-1,-1,-1,-1,-1,-1,-1,-1,-1,-1,-1,-1,-1,-1,-1,-1,-1,-1,-1,-1,-1,-1,-1],"split_conditions":[3.1547216E-1,3.5512564E-1,3.5512564E-1,1.6146308E-1,1.276988E-1,4.758499E-1,5.0287825E-1,1.2482171E-1,6.642608E-2,6.3969797E-1,6.163374E-1,1.584857E-1,1.2482171E-1,6.163374E-1,5.7836366E-1,1.8537848E-1,4.0656632E-1,5.265097E-1,1.69605E4,3.601106E-1,6.394219E-1,1.7596424E-1,5.161249E-1,3.6588064E-1,4.2001963E-1,-1.8066E4,-1.5479E4,2.9215357E-1,2.4162589E-1,-1.6869E4,2.9820016E-1,5.193609E-1,3.1556255E-1,3.2844728E-1,1.5724108E-1,3.8447195E-1,9.356442E-2,1.1168029E-1,1.9789152E-1,2.2565274E-1,1.2689169E-1,1.0492982E-1,-3.6938507E-2,2.1517609E-1,7.5518586E-2,3.2719072E-2,-4.200313E-2,2.2556229E-1,6.0127705E-2,9.2896126E-2,7.828153E-4,2.0214573E-2,1.02586225E-1,-2.9239058E-2,1.9054396E-2,2.4500735E-2,-2.6530901E-2,4.7890972E-2,-4.776826E-2,-6.0676217E-2,-3.137486E-2,-2.5587494E-2,-7.4123986E-2],"split_indices":[9,8,8,9,9,9,9,8,8,8,8,8,8,8,8,7,7,7,2,7,7,7,7,7,7,4,4,7,7,4,7,0,0,0,0,0,0,0,0,0,0,0,0,0,0,0,0,0,0,0,0,0,0,0,0,0,0,0,0,0,0,0,0],"split_type":[0,0,0,0,0,0,0,0,0,0,0,0,0,0,0,0,0,0,0,0,0,0,0,0,0,0,0,0,0,0,0,0,0,0,0,0,0,0,0,0,0,0,0,0,0,0,0,0,0,0,0,0,0,0,0,0,0,0,0,0,0,0,0],"sum_hessian":[1.825672E4,2.6653203E3,1.5591399E4,6.9039325E2,1.974927E3,3.217531E3,1.2373869E4,2.2293254E2,4.6746072E2,3.600761E2,1.6148508E3,1.5823461E3,1.6351849E3,5.7207725E3,6.653096E3,6.968497E1,1.5324756E2,6.42675E1,4.0319324E2,2.4274712E2,1.1732901E2,9.28465E2,6.863858E2,4.799283E2,1.1024177E3,2.9989026E2,1.3352947E3,3.0583464E3,2.662426E3,2.456117E3,4.1969795E3,4.7569824E1,2.2115145E1,1.2526968E2,2.7977884E1,5.7811066E1,6.4564347E0,1.20149055E2,2.8304416E2,1.7454637E2,6.820073E1,1.0011185E2,1.721716E1,5.1503056E1,8.76962E2,5.135463E2,1.7283951E2,3.9562363E2,8.430471E1,9.034556E2,1.989621E2,1.1302472E2,1.8686555E2,7.5970715E2,5.7558746E2,2.0075802E3,1.0507662E3,1.1139205E2,2.551034E3,1.1237908E3,1.3323262E3,2.1306235E2,3.9839172E3],"tree_param":{"num_deleted":"0","num_feature":"10","num_nodes":"63","size_leaf_vector":"1"}},{"base_weights":[-3.0779517E-3,6.7640656E-1,-2.6551625E-1,1.1717926E0,6.2546246E-2,5.705496E-1,-4.099476E-1,1.9743041E0,9.2697895E-1,6.1567044E-1,-7.8805596E-2,8.811072E-1,2.2560059E-1,-1.8304907E-1,-6.0152936E-1,2.4462783E0,1.6029409E0,1.6735542E0,7.260976E-1,1.00854E0,2.8541374E-1,1.22082844E-1,-3.2675734E-1,1.1045656E0,3.4467843E-1,4.1503197E-1,-2.622864E-1,2.2195531E-2,-4.101049E-1,-2.8344238E-1,-6.4510643E-1,1.2249732E-1,2.5979766E-1,9.5135674E-2,1.7860653E-1,8.50962E-2,1.940181E-1,8.7143555E-2,1.325845E-2,3.7501463E-1,9.5189035E-2,7.895875E-4,7.409881E-2,2.5675312E-2,-4.360611E-2,-4.7404837E-2,-1.01102805E-2,2.480567E-1,1.01298235E-1,4.948377E-2,-2.767682E-2,-1.4293154E-3,5.3344E-2,1.5858857E-2,-3.9837357E-2,1.2875213E-2,-4.182517E-2,4.165068E-2,-4.491054E-2,1.4357671E-2,-3.5578042E-2,-4.9207166E-2,-7.201902E-2],"categories":[],"categories_nodes":[],"categories_segments":[],"categories_sizes":[],"default_left":[0,1,0,0,0,0,1,0,0,0,0,1,1,1,0,0,0,0,1,0,0,1,0,0,1,0,0,1,0,0,1,0,0,0,0,0,0,0,0,0,0,0,0,0,0,0,0,0,0,0,0,0,0,0,0,0,0,0,0,0,0,0,0],"id":1,"left_children":[1,3,5,7,9,11,13,15,17,19,21,23,25,27,29,31,33,35,37,39,41,43,45,47,49,51,53,55,57,59,61,-1,-1,-1,-1,-1,-1,-1,-1,-1,-1,-1,-1,-1,-1,-1,-1,-1,-1,-1,-1,-1,-1,-1,-1,-1,-1,-1,-1,-1,-1,-1,-1],"loss_changes":[3.2622493E3,1.5499412E3,1.593823E3,5.523386E2,1.7810744E2,2.0809674E2,4.8907947E2,1.1148877E2,3.232118E2,5.986972E1,9.043383E1,1.2222858E2,8.537024E1,2.4016626E2,8.4387695E1,5.0184204E1,4.261725E1,9.8775024E1,1.4707404E2,2.9256409E1,3.201792E1,7.552143E1,2.69572E1,8.842407E1,2.8341022E1,3.3808487E1,1.4876102E1,1.2713017E2,7.906543E1,2.2814411E1,6.129541E1,0E0,0E0,0E0,0E0,0E0,0E0,0E0,0E0,0E0,0E0,0E0,0E0,0E0,0E0,0E0,0E0,0E0,0E0,0E0,0E0,0E0,0E0,0E0,0E0,0E0,0E0,0E0,0E0,0E0,0E0,0E0,0E0],"parents":[2147483647,0,0,1,1,2,2,3,3,4,4,5,5,6,6,7,7,8,8,9,9,10,10,11,11,12,12,13,13,14,14,15,15,16,16,17,17,18,18,19,19,20,20,21,21,22,22,23,23,24,24,25,25,26,26,27,27,28,28,29,29,30,30],"right_children":[2,4,6,8,10,12,14,16,18,20,22,24,26,28,30,32,34,36,38,40,42,44,46,48,50,52,54,56,58,60,62,-1,-1,-1,-1,-1,-1,-1,-1,-1,-1,-1,-1,-1,-1,-1,-1,-1,-1,-1,-1,-1,-1,-1,-1,-1,-1,-1,-1,-1,-1,-1,-1],"split_conditions":[4.0428576E-1,4.3473324E-1,3.1547216E-1,2.4318647E-1,1.5214342E-1,2.2383131E-1,4.9566582E-1,2.0439267E-1,1.2482171E-1,5.884878E-1,6.3637614E-1,6.539536E-1,4.4167247E-1,6.193785E-1,4.1196674E-1,1.87704E5,1.4976E4,-1.8256E4,3.8771865E-1,8.897808E-2,-1.4393E4,4.6864387E-1,-1.5479E4,1.7137988E-1,5.7342607E-1,-1.9189E4,5.385108E-1,5.0261265E-1,2.4162589E-1,1.8537848E-1,5.7836366E-1,1.2249732E-1,2.5979766E-1,9.5135674E-2,1.7860653E-1,8.50962E-2,1.940181E-1,8.7143555E-2,1.325845E-2,3.7501463E-1,9.5189035E-2,7.895875E-4,7.409881E-2,2.5675312E-2,-4.360611E-2,-4.7404837E-2,-1.01102805E-2,2.480567E-1,1.01298235E-1,4.948377E-2,-2.767682E-2,-1.4293154E-3,5.3344E-2,1.5858857E-2,-3.9837357E-2,1.2875213E-2,-4.182517E-2,4.165068E-2,-4.491054E-2,1.4357671E-2,-3.5578042E-2,-4.9207166E-2,-7.201902E-2],"split_indices":[8,9,9,9,8,9,9,8,8,9,9,8,7,8,7,1,2,4,7,7,4,7,4,7,7,4,8,7,7,7,8,0,0,0,0,0,0,0,0,0,0,0,0,0,0,0,0,0,0,0,0,0,0,0,0,0,0,0,0,0,0,0,0],"split_type":[0,0,0,0,0,0,0,0,0,0,0,0,0,0,0,0,0,0,0,0,0,0,0,0,0,0,0,0,0,0,0,0,0,0,0,0,0,0,0,0,0,0,0,0,0,0,0,0,0,0,0,0,0,0,0,0,0,0,0,0,0,0,0],"sum_hessian":[1.8292064E4,5.096091E3,1.3195974E4,2.8196892E3,2.2764016E3,1.9433877E3,1.1252586E4,6.5745496E2,2.1622344E3,4.6264987E2,1.8137517E3,1.02185614E3,9.215315E2,5.1523687E3,6.100217E3,2.870495E2,3.704055E2,4.568862E2,1.705348E3,2.1035735E2,2.5229251E2,1.00224713E3,8.1150464E2,7.2061346E2,3.012427E2,6.639065E2,2.57625E2,2.7066367E3,2.4457322E3,7.3592224E2,5.364295E3,3.2717686E1,2.543318E2,8.262131E1,2.8778418E2,1.12865875E2,3.4402032E2,1.3695161E3,3.358319E2,2.938681E0,2.0741867E2,1.5741739E2,9.487512E1,8.0786383E2,1.943833E2,4.9034314E2,3.2116153E2,4.3341408E1,6.7727203E2,2.4278311E2,5.84596E1,1.4371227E2,5.201943E2,6.2907257E1,1.9471773E2,2.1799524E3,5.2668427E2,1.0975727E2,2.3359749E3,1.0646476E2,6.2945746E2,1.7681089E3,3.5961858E3],"tree_param":{"num_deleted":"0","num_feature":"10","num_nodes":"63","size_leaf_vector":"1"}},{"base_weights":[-4.9191145E-3,3.6984003E-1,-3.8219848E-1,9.511706E-1,6.473627E-2,6.1129164E-2,-5.30378E-1,1.5030978E0,7.6857406E-1,6.352176E-1,-1.10581085E-1,5.284938E-1,-6.69142E-2,-4.0270618E-1,-6.531375E-1,2.1919725E0,1.3576667E0,1.254995E0,5.9132415E-1,8.622851E-1,2.68393E-1,2.5482172E-2,-4.341883E-1,6.841859E-1,-1.00793675E-1,-2.744727E-1,1.6814087E-1,-2.5781745E-1,-5.365074E-1,-1.92554E-1,-6.794397E-1,1.2802295E-1,2.4463835E-1,6.555382E-2,1.5025558E-1,1.3977994E-1,3.82397E-2,1.1808808E-2,7.287075E-2,1.0137137E-1,3.34428E-2,1.5471019E-1,1.9253647E-2,1.06971E-1,-1.6765073E-3,3.3549324E-2,-4.6978053E-2,3.997979E-3,9.3112186E-2,1.7013672E-1,-2.1762421E-2,-8.109147E-3,-4.3737084E-2,4.328633E-2,-2.98485E-2,-1.6834995E-2,-5.6240052E-2,-2.324942E-2,-5.7717975E-2,-4.5629356E-2,-1.3847371E-3,-5.4239262E-2,-7.425552E-2],"categories":[],"categories_nodes":[],"categories_segments":[],"categories_sizes":[],"default_left":[1,0,1,0,0,0,0,0,0,1,1,1,0,0,0,0,0,1,0,1,0,0,0,0,0,0,1,1,0,0,0,0,0,0,0,0,0,0,0,0,0,0,0,0,0,0,0,0,0,0,0,0,0,0,0,0,0,0,0,0,0,0,0],"id":2,"left_children":[1,3,5,7,9,11,13,15,17,19,21,23,25,27,29,31,33,35,37,39,41,43,45,47,49,51,53,55,57,59,61,-1,-1,-1,-1,-1,-1,-1,-1,-1,-1,-1,-1,-1,-1,-1,-1,-1,-1,-1,-1,-1,-1,-1,-1,-1,-1,-1,-1,-1,-1,-1,-1],"loss_changes":[2.58671E3,1.6278335E3,5.989363E2,3.1720654E2,6.0218054E2,1.3676283E2,1.06831055E2,7.559326E1,2.040885E2,1.17657104E2,2.0281154E2,4.8219376E1,8.758666E1,6.4846985E1,4.205078E1,2.820044E1,6.515735E1,7.84198E1,1.13242676E2,6.950183E1,5.2332245E1,1.4310541E2,3.7507324E1,6.265677E1,2.107686E1,2.9993988E1,1.0414379E2,4.3813896E1,2.1403168E1,8.924945E0,2.8084839E1,0E0,0E0,0E0,0E0,0E0,0E0,0E0,0E0,0E0,0E0,0E0,0E0,0E0,0E0,0E0,0E0,0E0,0E0,0E0,0E0,0E0,0E0,0E0,0E0,0E0,0E0,0E0,0E0,0E0,0E0,0E0,0E0],"parents":[2147483647,0,0,1,1,2,2,3,3,4,4,5,5,6,6,7,7,8,8,9,9,10,10,11,11,12,12,13,13,14,14,15,15,16,16,17,17,18,18,19,19,20,20,21,21,22,22,23,23,24,24,25,25,26,26,27,27,28,28,29,29,30,30],"right_children":[2,4,6,8,10,12,14,16,18,20,22,24,26,28,30,32,34,36,38,40,42,44,46,48,50,52,54,56,58,60,62,-1,-1,-1,-1,-1,-1,-1,-1,-1,-1,-1,-1,-1,-1,-1,-1,-1,-1,-1,-1,-1,-1,-1,-1,-1,-1,-1,-1,-1,-1,-1,-1],"split_conditions":[4.3296167E-1,4.1199255E-1,4.0036312E-1,2.4318647E-1,2.608559E-1,1.5214342E-1,6.209239E-1,7.608049E-2,1.5214342E-1,6.297307E-1,6.677973E-1,3.9313364E-1,-1.5685E4,6.127042E-1,2.9820016E-1,2.6064E5,-1.9056E4,3.9571157E-1,-1.9497E4,4.602033E-1,2.0963214E-1,1.806785E-1,2.4162589E-1,-1.9378E4,9.653053E-3,6.1782616E-1,2.832543E-1,4.9999398E-1,3.9571157E-1,-1.801E3,5.691488E-1,1.2802295E-1,2.4463835E-1,6.555382E-2,1.5025558E-1,1.3977994E-1,3.82397E-2,1.1808808E-2,7.287075E-2,1.0137137E-1,3.34428E-2,1.5471019E-1,1.9253647E-2,1.06971E-1,-1.6765073E-3,3.3549324E-2,-4.6978053E-2,3.997979E-3,9.3112186E-2,1.7013672E-1,-2.1762421E-2,-8.109147E-3,-4.3737084E-2,4.328633E-2,-2.98485E-2,-1.6834995E-2,-5.6240052E-2,-2.324942E-2,-5.7717975E-2,-4.5629356E-2,-1.3847371E-3,-5.4239262E-2,-7.425552E-2],"split_indices":[9,8,8,9,9,8,8,8,8,8,8,7,4,9,7,1,4,7,4,7,7,7,7,4,8,9,7,7,7,5,9,0,0,0,0,0,0,0,0,0,0,0,0,0,0,0,0,0,0,0,0,0,0,0,0,0,0,0,0,0,0,0,0],"split_type":[0,0,0,0,0,0,0,0,0,0,0,0,0,0,0,0,0,0,0,0,0,0,0,0,0,0,0,0,0,0,0,0,0,0,0,0,0,0,0,0,0,0,0,0,0,0,0,0,0,0,0,0,0,0,0,0,0,0,0,0,0,0,0],"sum_hessian":[1.8293E4,9.177161E3,9.115838E3,3.1579783E3,6.019183E3,2.2837717E3,6.8320664E3,7.832497E2,2.3747285E3,1.4143326E3,4.6048506E3,4.904559E2,1.7933159E3,3.3511255E3,3.480941E3,1.3407822E2,6.4917145E2,6.326068E2,1.7421217E3,8.7274536E2,5.415873E2,3.2424553E3,1.3623951E3,3.931094E2,9.734649E1,9.5227216E2,8.4104376E2,1.6103069E3,1.7408186E3,1.8849464E2,3.2924463E3,3.0566809E1,1.0351141E2,1.119908E2,5.3718066E2,5.4312085E2,8.948596E1,3.9237863E2,1.349743E3,6.7747473E2,1.9527061E2,2.9243103E1,5.123442E2,1.2513618E2,3.117319E3,5.984394E1,1.3025513E3,1.09252785E2,2.8385663E2,5.1008606E0,9.224563E1,4.360829E2,5.161892E2,5.3666156E2,3.043822E2,1.2458938E3,3.6441315E2,2.0620609E2,1.5346125E3,7.550671E1,1.1298794E2,1.0412026E3,2.2512437E3],"tree_param":{"num_deleted":"0","num_feature":"10","num_nodes":"63","size_leaf_vector":"1"}},{"base_weights":[-6.07873E-3,3.2133165E-1,-3.566537E-1,7.079709E-1,-3.5946392E-3,-3.1426705E-2,-5.4283386E-1,1.0101428E0,4.861308E-1,4.7909632E-1,-1.6468835E-1,3.0526406E-1,-1.740906E-1,-4.6782887E-1,-7.215477E-1,5.2667E-1,1.1691357E0,9.839553E-1,3.467774E-1,6.1869437E-1,7.372312E-2,-6.827819E-2,-5.501324E-1,6.409914E-1,7.649795E-2,-3.881427E-1,-2.8244406E-2,-3.2296005E-1,-5.8943075E-1,-6.5849894E-1,-8.4953725E-1,1.16203964E-1,4.2176966E-2,1.3775444E-1,6.547325E-2,1.812929E-1,8.888341E-2,4.5173567E-2,-8.5442625E-3,7.07166E-2,-1.0196869E-2,8.576193E-2,-2.117819E-3,1.7995894E-3,-4.6487644E-2,-3.659985E-2,-6.4772666E-2,7.617137E-2,-1.4160335E-2,6.4636886E-2,-2.429642E-3,-6.383592E-3,-4.527782E-2,1.1575734E-2,-4.3225393E-2,-2.5498614E-2,-5.3569335E-2,-7.22238E-2,-4.6271402E-2,-5.83543E-2,-7.988845E-2,-5.077302E-2,-8.703169E-2],"categories":[],"categories_nodes":[],"categories_segments":[],"categories_sizes":[],"default_left":[1,0,1,0,0,0,1,0,0,1,1,0,0,0,0,0,1,0,1,1,0,1,0,1,0,0,1,0,0,0,0,0,0,0,0,0,0,0,0,0,0,0,0,0,0,0,0,0,0,0,0,0,0,0,0,0,0,0,0,0,0,0,0],"id":3,"left_children":[1,3,5,7,9,11,13,15,17,19,21,23,25,27,29,31,33,35,37,39,41,43,45,47,49,51,53,55,57,59,61,-1,-1,-1,-1,-1,-1,-1,-1,-1,-1,-1,-1,-1,-1,-1,-1,-1,-1,-1,-1,-1,-1,-1,-1,-1,-1,-1,-1,-1,-1,-1,-1],"loss_changes":[2.0976633E3,1.1871765E3,5.343679E2,2.8876855E2,3.9942224E2,1.5443262E2,7.4893555E1,1.397373E2,1.7241638E2,7.269174E1,1.4308078E2,7.3443726E1,7.048362E1,6.9501465E1,1.2814453E1,2.974759E1,1.4631396E2,4.12912E1,8.837193E1,6.102289E1,2.4596613E1,1.0545893E2,1.3608032E1,3.673236E1,3.2770317E1,1.915097E1,7.82468E1,2.6001099E1,3.5840393E1,1.1264465E1,3.418518E0,0E0,0E0,0E0,0E0,0E0,0E0,0E0,0E0,0E0,0E0,0E0,0E0,0E0,0E0,0E0,0E0,0E0,0E0,0E0,0E0,0E0,0E0,0E0,0E0,0E0,0E0,0E0,0E0,0E0,0E0,0E0,0E0],"parents":[2147483647,0,0,1,1,2,2,3,3,4,4,5,5,6,6,7,7,8,8,9,9,10,10,11,11,12,12,13,13,14,14,15,15,16,16,17,17,18,18,19,19,20,20,21,21,22,22,23,23,24,24,25,25,26,26,27,27,28,28,29,29,30,30],"right_children":[2,4,6,8,10,12,14,16,18,20,22,24,26,28,30,32,34,36,38,40,42,44,46,48,50,52,54,56,58,60,62,-1,-1,-1,-1,-1,-1,-1,-1,-1,-1,-1,-1,-1,-1,-1,-1,-1,-1,-1,-1,-1,-1,-1,-1,-1,-1,-1,-1,-1,-1,-1,-1],"split_conditions":[4.3296167E-1,4.8853981E-1,4.9127215E-1,2.5858158E-1,2.6504943E-1,2.3112567E-1,4.521402E-1,-1.8195E4,2.2888342E-1,4.443793E-1,5.370651E-1,5.726825E-1,-1.7363E4,6.127042E-1,7.363448E-1,1.8088798E-1,2.3846857E-1,2.0628493E-1,4.2508388E-1,7.1766776E-1,8.172559E-2,7.0591116E-1,6.0874474E-1,4.7597346E-1,5.5249546E-2,5.0468135E-1,4.010695E-1,6.9372976E-1,-1.7423E4,6.7786694E-1,4.632753E-1,1.16203964E-1,4.2176966E-2,1.3775444E-1,6.547325E-2,1.812929E-1,8.888341E-2,4.5173567E-2,-8.5442625E-3,7.07166E-2,-1.0196869E-2,8.576193E-2,-2.117819E-3,1.7995894E-3,-4.6487644E-2,-3.659985E-2,-6.4772666E-2,7.617137E-2,-1.4160335E-2,6.4636886E-2,-2.429642E-3,-6.383592E-3,-4.527782E-2,1.1575734E-2,-4.3225393E-2,-2.5498614E-2,-5.3569335E-2,-7.22238E-2,-4.6271402E-2,-5.83543E-2,-7.988845E-2,-5.077302E-2,-8.703169E-2],"split_indices":[9,8,8,8,9,8,7,4,9,7,7,9,4,9,7,9,7,7,7,8,9,8,8,7,8,9,7,8,4,8,9,0,0,0,0,0,0,0,0,0,0,0,0,0,0,0,0,0,0,0,0,0,0,0,0,0,0,0,0,0,0,0,0],"split_type":[0,0,0,0,0,0,0,0,0,0,0,0,0,0,0,0,0,0,0,0,0,0,0,0,0,0,0,0,0,0,0,0,0,0,0,0,0,0,0,0,0,0,0,0,0,0,0,0,0,0,0,0,0,0,0,0,0,0,0,0,0,0,0],"sum_hessian":[1.8273215E4,9.448819E3,8.8243955E3,4.3141304E3,5.1346885E3,3.2129883E3,5.611407E3,1.8248798E3,2.4892507E3,1.284355E3,3.8503335E3,9.5589935E2,2.2570889E3,3.9550974E3,1.6563099E3,4.5267572E2,1.3722041E3,5.4308374E2,1.9461669E3,9.5496735E2,3.293876E2,3.0808943E3,7.694393E2,3.8665668E2,5.692427E2,9.139957E2,1.3430931E3,1.806547E3,2.1485505E3,1.1137913E3,5.425186E2,6.27186E1,3.8995712E2,9.753616E2,3.968425E2,5.4043163E1,4.890406E2,1.5658727E3,3.802942E2,8.5056696E2,1.0440042E2,3.470265E1,2.9468497E2,2.5312195E3,5.4967474E2,2.6818918E2,5.0125012E2,3.350057E2,5.165097E1,8.4738075E1,4.845046E2,1.5222058E2,7.6177515E2,9.9069257E2,3.524006E2,1.3707535E3,4.3579352E2,1.0467695E3,1.1017809E3,7.294652E2,3.843261E2,3.2549107E1,5.099695E2],"tree_param":{"num_deleted":"0","num_feature":"10","num_nodes":"63","size_leaf_vector":"1"}},{"base_weights":[-6.838676E-3,2.539654E-1,-3.7032524E-1,5.571435E-1,-5.7536036E-2,-8.798495E-4,-5.02947E-1,8.9112514E-1,4.1268665E-1,3.8171923E-1,-1.9474988E-1,-1.5715946E-1,2.3208839E-1,-1.8476036E-1,-5.481361E-1,3.6602616E-1,9.923478E-1,7.0674044E-1,2.5265473E-1,4.6376345E-1,-2.4857043E-1,-1.0516982E-1,-5.4704833E-1,4.0616725E-2,-2.9914698E-1,4.3470088E-1,-2.2545533E-1,5.757657E-1,-2.3184727E-1,-4.024617E-1,-6.248233E-1,-1.51649015E-2,5.6204207E-2,1.1389925E-1,5.1593006E-2,1.1119024E-1,5.9416335E-2,-1.4141805E-2,3.70596E-2,7.994769E-2,3.0105665E-2,-1.1959182E-2,-5.3943645E-2,3.9945234E-2,-1.6210457E-2,-7.3271126E-2,-4.8450198E-2,5.0600052E-2,-6.2522264E-3,-1.4606855E-2,-4.2096477E-2,-2.2088224E-2,5.5852827E-2,1.1170775E-1,-3.199793E-2,-1.34700015E-2,1.08530775E-1,-1.4959055E-2,-4.969434E-2,-3.4961745E-2,-6.7593984E-2,-5.8657058E-2,-8.283799E-2],"categories":[],"categories_nodes":[],"categories_segments":[],"categories_sizes":[],"default_left":[1,0,1,0,0,0,0,0,0,1,1,0,1,0,0,0,1,0,0,0,0,0,0,1,0,0,0,0,0,1,1,0,0,0,0,0,0,0,0,0,0,0,0,0,0,0,0,0,0,0,0,0,0,0,0,0,0,0,0,0,0,0,0],"id":4,"left_children":[1,3,5,7,9,11,13,15,17,19,21,23,25,27,29,31,33,35,37,39,41,43,45,47,49,51,53,55,57,59,61,-1,-1,-1,-1,-1,-1,-1,-1,-1,-1,-1,-1,-1,-1,-1,-1,-1,-1,-1,-1,-1,-1,-1,-1,-1,-1,-1,-1,-1,-1,-1,-1],"loss_changes":[1.7294814E3,1.0031992E3,3.7342627E2,2.5934583E2,3.1590515E2,7.337098E1,8.05376E1,8.598132E1,1.7674243E2,6.463121E1,1.2597266E2,3.388242E1,7.510484E1,2.5163424E1,5.4603516E1,2.6886646E1,9.4522705E1,5.9749634E1,1.1328061E2,6.0077362E1,5.3507204E0,9.15757E1,9.043549E0,2.4267572E1,1.3033047E1,4.5674286E1,3.1953918E1,1.5002609E1,1.4293816E1,2.4277588E1,2.4548462E1,0E0,0E0,0E0,0E0,0E0,0E0,0E0,0E0,0E0,0E0,0E0,0E0,0E0,0E0,0E0,0E0,0E0,0E0,0E0,0E0,0E0,0E0,0E0,0E0,0E0,0E0,0E0,0E0,0E0,0E0,0E0,0E0],"parents":[2147483647,0,0,1,1,2,2,3,3,4,4,5,5,6,6,7,7,8,8,9,9,10,10,11,11,12,12,13,13,14,14,15,15,16,16,17,17,18,18,19,19,20,20,21,21,22,22,23,23,24,24,25,25,26,26,27,27,28,28,29,29,30,30],"right_children":[2,4,6,8,10,12,14,16,18,20,22,24,26,28,30,32,34,36,38,40,42,44,46,48,50,52,54,56,58,60,62,-1,-1,-1,-1,-1,-1,-1,-1,-1,-1,-1,-1,-1,-1,-1,-1,-1,-1,-1,-1,-1,-1,-1,-1,-1,-1,-1,-1,-1,-1,-1,-1],"split_conditions":[4.758499E-1,5.1605266E-1,4.0036312E-1,2.0439267E-1,2.692858E-1,-1.4546E4,4.010695E-1,-2.0024E4,3.217353E-1,6.394219E-1,5.345367E-1,6.1782616E-1,2.9820016E-1,1.3035807E-1,5.7836366E-1,2.6064E5,2.7057946E-1,1.276988E-1,-1.9316E4,1.4199154E-1,2.2383131E-1,2.7681547E-1,-3.084E3,1.2482171E-1,2.4901175E-1,1.24515E4,5.5249546E-2,-1.472E3,7.062051E-1,6.2862134E-1,6.8838495E-1,-1.51649015E-2,5.6204207E-2,1.1389925E-1,5.1593006E-2,1.1119024E-1,5.9416335E-2,-1.4141805E-2,3.70596E-2,7.994769E-2,3.0105665E-2,-1.1959182E-2,-5.3943645E-2,3.9945234E-2,-1.6210457E-2,-7.3271126E-2,-4.8450198E-2,5.0600052E-2,-6.2522264E-3,-1.4606855E-2,-4.2096477E-2,-2.2088224E-2,5.5852827E-2,1.1170775E-1,-3.199793E-2,-1.34700015E-2,1.08530775E-1,-1.4959055E-2,-4.969434E-2,-3.4961745E-2,-6.7593984E-2,-5.8657058E-2,-8.283799E-2],"split_indices":[9,8,8,8,9,4,7,4,9,7,7,9,7,7,8,1,7,9,4,9,9,7,5,8,8,2,8,5,9,7,7,0,0,0,0,0,0,0,0,0,0,0,0,0,0,0,0,0,0,0,0,0,0,0,0,0,0,0,0,0,0,0,0],"split_type":[0,0,0,0,0,0,0,0,0,0,0,0,0,0,0,0,0,0,0,0,0,0,0,0,0,0,0,0,0,0,0,0,0,0,0,0,0,0,0,0,0,0,0,0,0,0,0,0,0,0,0,0,0,0,0,0,0,0,0,0,0,0,0],"sum_hessian":[1.8241719E4,1.0621222E4,7.6204976E3,5.3821216E3,5.2391E3,2.0132311E3,5.607266E3,1.6234852E3,3.7586362E3,1.2466106E3,3.9924895E3,1.2051311E3,8.080999E2,6.9794867E2,4.909318E3,2.631247E2,1.3603605E3,1.32344E3,2.4351963E3,1.103264E3,1.433466E2,3.1841453E3,8.0834424E2,5.0392355E2,7.012076E2,5.601158E2,2.4798418E2,4.0038452E1,6.579102E2,1.6952598E3,3.2140579E3,7.23296E1,1.9079509E2,1.0391208E3,3.212397E2,2.8583832E2,1.0376016E3,5.6089624E2,1.8743002E3,3.588774E2,7.4438666E2,1.0028738E2,4.3059235E1,3.2222205E2,2.861923E3,2.0099503E2,6.0734924E2,9.071106E1,4.132125E2,3.1170828E2,3.8949927E2,8.886283E1,4.7125293E2,1.5599871E1,2.3238431E2,1.7029495E1,2.3008959E1,5.0330417E2,1.5460608E2,1.4226409E3,2.726189E2,2.7088818E3,5.051759E2],"tree_param":{"num_deleted":"0","num_feature":"10","num_nodes":"63","size_leaf_vector":"1"}},{"base_weights":[-7.2733937E-3,2.232765E-1,-3.4530705E-1,5.32393E-1,-6.276337E-3,-7.231314E-2,-5.112271E-1,1.20398246E-1,6.2299776E-1,3.722051E-1,-1.3284774E-1,1.7457373E-1,-1.9860403E-1,-4.3964642E-1,-6.881301E-1,4.4443476E-1,-4.2690326E-2,7.32732E-1,1.4048927E-1,4.894214E-1,-1.28496345E-2,-3.876713E-2,-4.447315E-1,-1.5951571E-1,3.007565E-1,-5.8330286E-1,-1.2588866E-1,-5.80062E-1,-3.3578068E-1,-6.1868376E-1,-8.272312E-1,1.070353E-1,3.7763055E-2,1.2677288E-1,-7.216878E-3,1.22728705E-1,6.660568E-2,4.127052E-2,-8.837561E-3,2.5041634E-2,6.9933616E-2,1.2272003E-2,-3.206478E-2,4.1153557E-3,-3.744036E-2,-3.9991103E-3,-5.040908E-2,1.9120555E-1,-1.88684E-2,4.416119E-2,-2.6625166E-2,-2.8434282E-2,-6.374832E-2,-3.706969E-2,1.0081743E-3,-4.1964244E-2,-6.701536E-2,-2.3775991E-2,-4.938502E-2,-4.2950798E-2,-6.911711E-2,-9.269878E-2,-7.836577E-2],"categories":[],"categories_nodes":[],"categories_segments":[],"categories_sizes":[],"default_left":[1,0,1,0,0,0,1,0,1,0,1,0,0,0,0,0,0,0,0,1,0,1,0,0,1,0,0,0,0,0,0,0,0,0,0,0,0,0,0,0,0,0,0,0,0,0,0,0,0,0,0,0,0,0,0,0,0,0,0,0,0,0,0],"id":5,"left_children":[1,3,5,7,9,11,13,15,17,19,21,23,25,27,29,31,33,35,37,39,41,43,45,47,49,51,53,55,57,59,61,-1,-1,-1,-1,-1,-1,-1,-1,-1,-1,-1,-1,-1,-1,-1,-1,-1,-1,-1,-1,-1,-1,-1,-1,-1,-1,-1,-1,-1,-1,-1,-1],"loss_changes":[1.4185856E3,7.678984E2,3.3427545E2,1.7207288E2,2.9759012E2,8.70652E1,5.7826294E1,4.4018944E1,2.0004333E2,7.027289E1,1.36578E2,3.989219E1,5.1596863E1,4.750885E1,1.2245361E1,1.1255199E1,2.1521292E1,1.0072583E2,4.374862E1,5.9704895E1,1.52406225E1,9.597952E1,2.5896652E1,1.60569E1,5.4936745E1,4.570549E0,5.1756294E1,1.9798492E1,2.905037E1,1.1836456E1,1.1722107E0,0E0,0E0,0E0,0E0,0E0,0E0,0E0,0E0,0E0,0E0,0E0,0E0,0E0,0E0,0E0,0E0,0E0,0E0,0E0,0E0,0E0,0E0,0E0,0E0,0E0,0E0,0E0,0E0,0E0,0E0,0E0,0E0],"parents":[2147483647,0,0,1,1,2,2,3,3,4,4,5,5,6,6,7,7,8,8,9,9,10,10,11,11,12,12,13,13,14,14,15,15,16,16,17,17,18,18,19,19,20,20,21,21,22,22,23,23,24,24,25,25,26,26,27,27,28,28,29,29,30,30],"right_children":[2,4,6,8,10,12,14,16,18,20,22,24,26,28,30,32,34,36,38,40,42,44,46,48,50,52,54,56,58,60,62,-1,-1,-1,-1,-1,-1,-1,-1,-1,-1,-1,-1,-1,-1,-1,-1,-1,-1,-1,-1,-1,-1,-1,-1,-1,-1,-1,-1,-1,-1,-1,-1],"split_conditions":[4.758499E-1,4.535853E-1,4.9127215E-1,-1.9672E4,2.692858E-1,2.4901175E-1,4.521402E-1,3.5233998E-1,3.8771865E-1,6.795E5,6.88037E-1,-1.9851E4,-3.824E3,-1.7804E4,7.3351043E-1,5.5249546E-2,4.6323505E-1,1.4916746E-1,3.4905526E-1,2.1015E4,6.7358327E-1,5.056731E-1,4.0656632E-1,3.825E4,4.1196674E-1,2E0,-1.8195E4,6.127042E-1,6.6073585E-1,-1.7681E4,4.05E5,1.070353E-1,3.7763055E-2,1.2677288E-1,-7.216878E-3,1.22728705E-1,6.660568E-2,4.127052E-2,-8.837561E-3,2.5041634E-2,6.9933616E-2,1.2272003E-2,-3.206478E-2,4.1153557E-3,-3.744036E-2,-3.9991103E-3,-5.040908E-2,1.9120555E-1,-1.88684E-2,4.416119E-2,-2.6625166E-2,-2.8434282E-2,-6.374832E-2,-3.706969E-2,1.0081743E-3,-4.1964244E-2,-6.701536E-2,-2.3775991E-2,-4.938502E-2,-4.2950798E-2,-6.911711E-2,-9.269878E-2,-7.836577E-2],"split_indices":[9,8,8,4,9,8,7,9,7,3,8,4,5,4,7,8,7,9,9,2,8,7,7,0,7,6,4,9,8,4,1,0,0,0,0,0,0,0,0,0,0,0,0,0,0,0,0,0,0,0,0,0,0,0,0,0,0,0,0,0,0,0,0],"split_type":[0,0,0,0,0,0,0,0,0,0,0,0,0,0,0,0,0,0,0,0,0,0,0,0,0,0,0,0,0,0,0,0,0,0,0,0,0,0,0,0,0,0,0,0,0,0,0,0,0,0,0,0,0,0,0,0,0,0,0,0,0,0,0],"sum_hessian":[1.8200496E4,1.082074E4,7.379756E3,4.6106743E3,6.210066E3,2.790268E3,4.589488E3,8.3159717E2,3.7790771E3,1.5558197E3,4.654246E3,9.441537E2,1.8461144E3,3.2698757E3,1.3196118E3,2.7783963E2,5.5375757E2,3.0784453E3,7.00632E2,1.1925262E3,3.6329346E2,3.576507E3,1.0777391E3,2.5876556E2,6.853881E2,2.9236154E2,1.5537528E3,1.3883658E3,1.8815099E3,8.838145E2,4.357973E2,2.5345373E1,2.5249425E2,1.1258821E1,5.424988E2,3.636568E2,2.7147883E3,3.1964148E2,3.809905E2,5.5865027E2,6.338759E2,2.5262578E2,1.1066768E2,2.8893757E3,6.8713153E2,1.3805902E2,9.396801E2,2.696604E0,2.5606897E2,5.491822E2,1.362059E2,4.5814037E1,2.465475E2,5.542056E2,9.9954724E2,5.0133408E2,8.8703174E2,1.1628914E3,7.186186E2,2.4675746E2,6.3705707E2,1.2632242E2,3.0947488E2],"tree_param":{"num_deleted":"0","num_feature":"10","num_nodes":"63","size_leaf_vector":"1"}},{"base_weights":[-7.493856E-3,1.9694959E-1,-3.2134175E-1,3.9427096E-1,-8.6668774E-2,-6.595007E-2,-4.8264974E-1,6.1509603E-1,2.5882742E-1,1.8593715E-1,-2.3672394E-1,1.48003E-1,-1.866546E-1,-1.9306247E-1,-5.266068E-1,6.894884E-1,1.8772596E-1,5.9006894E-1,1.6760035E-1,3.045176E-1,-1.5841717E-1,3.1289366E-1,-2.8117818E-1,-1.1126095E-2,3.6250526E-1,-5.534302E-1,-1.1978379E-1,-5.4375783E-2,-3.815987E-1,-4.773081E-1,-7.323028E-1,2.5772337E-2,7.70542E-2,8.770522E-2,8.844867E-3,2.4969853E-2,6.841277E-2,2.4790024E-2,-1.7918376E-2,-1.4965938E-2,4.2579588E-2,1.2377593E-2,-2.99676E-2,1.2743762E-1,2.1143934E-2,-2.0108366E-2,-5.41381E-2,1.2034681E-2,-2.603812E-2,4.8360325E-2,-2.049369E-2,8.281925E-2,-5.6228675E-2,-3.4893893E-2,3.0284826E-4,8.004602E-2,-1.1801431E-2,-1.9570876E-2,-5.534652E-2,-3.773912E-2,-5.936637E-2,-6.4100705E-2,-8.046735E-2],"categories":[],"categories_nodes":[],"categories_segments":[],"categories_sizes":[],"default_left":[1,0,1,0,0,1,0,0,0,1,0,0,0,0,1,0,0,0,1,0,0,0,1,0,1,0,0,0,0,0,0,0,0,0,0,0,0,0,0,0,0,0,0,0,0,0,0,0,0,0,0,0,0,0,0,0,0,0,0,0,0,0,0],"id":6,"left_children":[1,3,5,7,9,11,13,15,17,19,21,23,25,27,29,31,33,35,37,39,41,43,45,47,49,51,53,55,57,59,61,-1,-1,-1,-1,-1,-1,-1,-1,-1,-1,-1,-1,-1,-1,-1,-1,-1,-1,-1,-1,-1,-1,-1,-1,-1,-1,-1,-1,-1,-1,-1,-1],"loss_changes":[1.1650027E3,6.153373E2,2.9501837E2,1.937699E2,1.846005E2,7.165671E1,5.5772278E1,7.821747E1,1.2139722E2,6.5477516E1,7.119713E1,3.4169994E1,4.343583E1,1.5145905E1,3.8289185E1,7.324219E1,2.5019585E1,2.7611969E1,8.786789E1,6.573447E1,1.6424278E1,2.1020796E1,5.6018295E1,1.8894463E1,2.9395035E1,3.809082E0,4.2256126E1,1.8338757E1,7.740505E0,3.5543396E1,4.3390503E0,0E0,0E0,0E0,0E0,0E0,0E0,0E0,0E0,0E0,0E0,0E0,0E0,0E0,0E0,0E0,0E0,0E0,0E0,0E0,0E0,0E0,0E0,0E0,0E0,0E0,0E0,0E0,0E0,0E0,0E0,0E0,0E0],"parents":[2147483647,0,0,1,1,2,2,3,3,4,4,5,5,6,6,7,7,8,8,9,9,10,10,11,11,12,12,13,13,14,14,15,15,16,16,17,17,18,18,19,19,20,20,21,21,22,22,23,23,24,24,25,25,26,26,27,27,28,28,29,29,30,30],"right_children":[2,4,6,8,10,12,14,16,18,20,22,24,26,28,30,32,34,36,38,40,42,44,46,48,50,52,54,56,58,60,62,-1,-1,-1,-1,-1,-1,-1,-1,-1,-1,-1,-1,-1,-1,-1,-1,-1,-1,-1,-1,-1,-1,-1,-1,-1,-1,-1,-1,-1,-1,-1,-1],"split_conditions":[4.758499E-1,5.526166E-1,4.9127215E-1,2.6651978E-1,3.3445412E-1,2.542455E-1,4.1462672E-1,-9.2E1,2.2888342E-1,4.443793E-1,2.6441705E-1,-1.4598E4,-3.824E3,6.439257E-1,6.2862134E-1,-3.114E3,4.476854E-2,1.4976E4,4.4167247E-1,-1.9189E4,1.8088798E-1,9.908158E-2,7.0591116E-1,6.894792E-1,3.8771865E-1,-2.4109E4,-1.8195E4,1.3035807E-1,2.9820016E-1,6.577838E-1,7.3351043E-1,2.5772337E-2,7.70542E-2,8.770522E-2,8.844867E-3,2.4969853E-2,6.841277E-2,2.4790024E-2,-1.7918376E-2,-1.4965938E-2,4.2579588E-2,1.2377593E-2,-2.99676E-2,1.2743762E-1,2.1143934E-2,-2.0108366E-2,-5.41381E-2,1.2034681E-2,-2.603812E-2,4.8360325E-2,-2.049369E-2,8.281925E-2,-5.6228675E-2,-3.4893893E-2,3.0284826E-4,8.004602E-2,-1.1801431E-2,-1.9570876E-2,-5.534652E-2,-3.773912E-2,-5.936637E-2,-6.4100705E-2,-8.046735E-2],"split_indices":[9,8,8,8,9,8,7,5,9,7,7,4,5,8,7,5,8,2,7,4,9,7,8,9,7,4,4,7,7,9,7,0,0,0,0,0,0,0,0,0,0,0,0,0,0,0,0,0,0,0,0,0,0,0,0,0,0,0,0,0,0,0,0],"split_type":[0,0,0,0,0,0,0,0,0,0,0,0,0,0,0,0,0,0,0,0,0,0,0,0,0,0,0,0,0,0,0,0,0,0,0,0,0,0,0,0,0,0,0,0,0,0,0,0,0,0,0,0,0,0,0,0,0,0,0,0,0,0,0],"sum_hessian":[1.8154613E4,1.0993631E4,7.1609814E3,6.482902E3,4.5107295E3,2.772622E3,4.3883594E3,2.463275E3,4.0196267E3,1.6013358E3,2.9093936E3,9.999496E2,1.7726725E3,5.7904297E2,3.8093162E3,2.097542E3,3.6573294E2,8.6680994E2,3.1528167E3,1.1912407E3,4.1009512E2,2.1725731E2,2.6921362E3,5.7461676E2,4.253329E2,2.722344E2,1.5004381E3,3.3436987E2,2.4467305E2,3.0755305E3,7.3378564E2,3.3218793E2,1.7653541E3,4.505585E1,3.206771E2,1.8846538E2,6.7834454E2,2.5602588E3,5.925579E2,2.5100684E2,9.402339E2,1.3684444E2,2.7325067E2,1.9633125E1,1.9762419E2,2.0598538E3,6.3228265E2,3.765288E2,1.9808794E2,3.5064862E2,7.468425E1,1.1447228E0,2.710897E2,5.229066E2,9.7753143E2,2.236533E1,3.1200455E2,1.18568565E2,1.2610449E2,1.6569325E3,1.418598E3,3.288272E2,4.0495844E2],"tree_param":{"num_deleted":"0","num_feature":"10","num_nodes":"63","size_leaf_vector":"1"}},{"base_weights":[-7.536451E-3,1.6302122E-1,-3.2095146E-1,3.370835E-1,-9.2832625E-2,-1.243369E-1,-4.982702E-1,3.8832524E-1,-1.3301972E-1,1.0181144E-1,-2.7545083E-1,1.0856488E-1,-2.2571962E-1,-8.089591E-2,-5.2703273E-1,5.8128315E-1,2.672538E-1,5.099765E-1,-1.8250869E-1,2.0391901E-1,-2.5070736E-1,-1.9246402E-1,-5.2250135E-1,-4.4335338E-1,1.7411402E-1,-4.6172333E-1,-1.361878E-1,-2.9087687E-1,1.1859855E-1,-4.650654E-1,-6.6710335E-1,6.989821E-2,3.7926633E-2,6.821514E-2,2.0454979E-2,8.147883E-2,6.31916E-3,-4.5284424E-2,-7.0820036E-3,-1.8412063E-2,2.9780338E-2,9.184529E-3,-3.54255E-2,9.02926E-2,-2.0951437E-2,-2.6824549E-2,-5.770061E-2,6.0964115E-2,-5.3338002E-2,6.333887E-2,9.280892E-3,-6.736204E-2,-3.7950203E-2,-4.273706E-2,-3.5035925E-3,-3.526891E-2,8.464836E-2,-3.3943705E-2,3.2537244E-2,-4.1779663E-2,-6.847408E-2,-5.711332E-2,-7.374093E-2],"categories":[],"categories_nodes":[],"categories_segments":[],"categories_sizes":[],"default_left":[1,0,1,1,0,1,0,0,0,1,1,0,0,0,1,1,0,0,0,0,0,0,0,0,0,0,0,0,0,0,0,0,0,0,0,0,0,0,0,0,0,0,0,0,0,0,0,0,0,0,0,0,0,0,0,0,0,0,0,0,0,0,0],"id":7,"left_children":[1,3,5,7,9,11,13,15,17,19,21,23,25,27,29,31,33,35,37,39,41,43,45,47,49,51,53,55,57,59,61,-1,-1,-1,-1,-1,-1,-1,-1,-1,-1,-1,-1,-1,-1,-1,-1,-1,-1,-1,-1,-1,-1,-1,-1,-1,-1,-1,-1,-1,-1,-1,-1],"loss_changes":[9.678909E2,5.2222546E2,2.2239996E2,1.6815417E2,1.6880505E2,7.15027E1,4.023053E1,1.4685468E2,2.1942703E1,8.280854E1,5.0130035E1,3.331602E1,4.4508553E1,9.144078E0,2.6929749E1,5.7401123E1,1.0050241E2,6.6671553E0,1.924046E1,6.502259E1,1.836473E1,3.447171E1,8.374527E0,9.597906E0,3.0633873E1,9.844681E0,4.5069096E1,7.767312E0,1.0739441E1,2.234076E1,6.057892E0,0E0,0E0,0E0,0E0,0E0,0E0,0E0,0E0,0E0,0E0,0E0,0E0,0E0,0E0,0E0,0E0,0E0,0E0,0E0,0E0,0E0,0E0,0E0,0E0,0E0,0E0,0E0,0E0,0E0,0E0,0E0,0E0],"parents":[2147483647,0,0,1,1,2,2,3,3,4,4,5,5,6,6,7,7,8,8,9,9,10,10,11,11,12,12,13,13,14,14,15,15,16,16,17,17,18,18,19,19,20,20,21,21,22,22,23,23,24,24,25,25,26,26,27,27,28,28,29,29,30,30],"right_children":[2,4,6,8,10,12,14,16,18,20,22,24,26,28,30,32,34,36,38,40,42,44,46,48,50,52,54,56,58,60,62,-1,-1,-1,-1,-1,-1,-1,-1,-1,-1,-1,-1,-1,-1,-1,-1,-1,-1,-1,-1,-1,-1,-1,-1,-1,-1,-1,-1,-1,-1,-1,-1],"split_conditions":[5.0468135E-1,5.526166E-1,5.426817E-1,5.659111E-1,4.1359675E-1,2.542455E-1,2.9820016E-1,3.4252888E-1,1.3510601E-1,4.867312E-1,7.0125943E-1,1.8E5,-1.9497E4,-1.441E3,4.521402E-1,4.545E5,1.0449358E-1,4.725E5,2.88E5,-1.9497E4,1.8088798E-1,1.2387034E-1,4.5969045E-1,2.832543E-1,5.5249546E-2,1.5498E4,-3.052E3,3.42E5,1.7694E4,7.248293E-1,6.4686346E-1,6.989821E-2,3.7926633E-2,6.821514E-2,2.0454979E-2,8.147883E-2,6.31916E-3,-4.5284424E-2,-7.0820036E-3,-1.8412063E-2,2.9780338E-2,9.184529E-3,-3.54255E-2,9.02926E-2,-2.0951437E-2,-2.6824549E-2,-5.770061E-2,6.0964115E-2,-5.3338002E-2,6.333887E-2,9.280892E-3,-6.736204E-2,-3.7950203E-2,-4.273706E-2,-3.5035925E-3,-3.526891E-2,8.464836E-2,-3.3943705E-2,3.2537244E-2,-4.1779663E-2,-6.847408E-2,-5.711332E-2,-7.374093E-2],"split_indices":[9,8,8,7,9,8,7,9,9,7,8,1,4,5,7,3,8,3,3,4,9,7,9,7,8,2,5,0,2,8,8,0,0,0,0,0,0,0,0,0,0,0,0,0,0,0,0,0,0,0,0,0,0,0,0,0,0,0,0,0,0,0,0],"split_type":[0,0,0,0,0,0,0,0,0,0,0,0,0,0,0,0,0,0,0,0,0,0,0,0,0,0,0,0,0,0,0,0,0,0,0,0,0,0,0,0,0,0,0,0,0,0,0,0,0,0,0,0,0,0,0,0,0,0,0,0,0,0,0],"sum_hessian":[1.8104559E4,1.1724609E4,6.379948E3,6.97742E3,4.7471895E3,3.026171E3,3.3537776E3,6.2917827E3,6.856371E2,2.2981467E3,2.449043E3,9.177639E2,2.108407E3,2.1646416E2,3.1373132E3,2.4242798E3,3.8675027E3,4.833458E1,6.373025E2,1.7823175E3,5.158292E2,1.8345709E3,6.1447205E2,9.681616E1,8.209477E2,5.787304E2,1.5296765E3,1.0523713E2,1.1122703E2,2.178059E3,9.5925415E2,1.5302601E3,8.940197E2,5.0646494E2,3.3610378E3,2.824275E1,2.0091827E1,1.8542882E2,4.5187366E2,3.4702875E2,1.4352887E3,1.1975916E2,3.9607007E2,2.7322071E1,1.8072488E3,1.0951658E2,5.0495544E2,7.170841E0,8.9645325E1,1.22452156E2,6.9849554E2,1.5977434E2,4.1895605E2,3.9355035E2,1.1361262E3,1.0046695E2,4.7701807E0,3.4395084E1,7.683194E1,1.7947706E3,3.8328854E2,4.094558E2,5.497984E2],"tree_param":{"num_deleted":"0","num_feature":"10","num_nodes":"63","size_leaf_vector":"1"}},{"base_weights":[-7.4692E-3,1.445845E-1,-2.9807505E-1,3.9559606E-1,5.327033E-3,-1.1355894E-1,-4.7014803E-1,1.6186598E-1,4.896835E-1,2.3118705E-1,-1.05105974E-1,-3.5871435E-2,-3.7510124E-1,-7.364276E-2,-4.985919E-1,9.238243E-1,1.1766832E-1,7.4742186E-1,2.385104E-1,5.7939833E-1,1.601914E-1,-3.2668896E-2,-4.0913755E-1,-3.537807E-1,7.8383885E-2,-7.140904E-1,-2.9582122E-1,-2.3966381E-1,1.4689225E-1,-4.37313E-1,-6.3970125E-1,1.0326119E-1,-7.617752E-2,3.8156595E-2,1.4303315E-3,3.696543E-2,9.175987E-2,5.906809E-2,1.7880348E-2,2.594844E-2,7.231737E-2,7.8592084E-2,1.2360758E-2,-3.6172036E-2,3.5363466E-3,-2.5787586E-2,-5.169518E-2,-1.9371675E-2,-4.9359974E-2,-1.922678E-2,2.1562174E-2,-6.1000574E-2,-9.413793E-2,4.9478773E-2,-3.3033907E-2,-9.1928266E-2,-1.5315882E-2,5.9324005E-3,1.2181757E-1,-2.9592726E-2,-5.1163286E-2,-5.789534E-2,-7.6050706E-2],"categories":[],"categories_nodes":[],"categories_segments":[],"categories_sizes":[],"default_left":[1,0,1,1,0,1,0,0,1,0,1,0,0,0,1,0,0,0,0,0,0,0,1,1,0,0,0,0,0,0,0,0,0,0,0,0,0,0,0,0,0,0,0,0,0,0,0,0,0,0,0,0,0,0,0,0,0,0,0,0,0,0,0],"id":8,"left_children":[1,3,5,7,9,11,13,15,17,19,21,23,25,27,29,31,33,35,37,39,41,43,45,47,49,51,53,55,57,59,61,-1,-1,-1,-1,-1,-1,-1,-1,-1,-1,-1,-1,-1,-1,-1,-1,-1,-1,-1,-1,-1,-1,-1,-1,-1,-1,-1,-1,-1,-1,-1,-1],"loss_changes":[7.979049E2,4.143769E2,1.9688184E2,9.2942444E1,1.9022456E2,6.0828815E1,3.6157288E1,4.082704E1,1.9503174E2,6.1820297E1,1.1279266E2,8.392499E1,1.8215652E1,7.9430356E0,2.5611511E1,1.2980255E1,3.1365393E1,9.530725E1,3.2037025E1,1.9303482E1,4.7555447E1,9.263945E1,1.5938019E1,1.3574875E1,6.318312E1,2.4835281E0,1.5374882E1,7.1257095E0,8.687881E0,2.1818298E1,6.197052E0,0E0,0E0,0E0,0E0,0E0,0E0,0E0,0E0,0E0,0E0,0E0,0E0,0E0,0E0,0E0,0E0,0E0,0E0,0E0,0E0,0E0,0E0,0E0,0E0,0E0,0E0,0E0,0E0,0E0,0E0,0E0,0E0],"parents":[2147483647,0,0,1,1,2,2,3,3,4,4,5,5,6,6,7,7,8,8,9,9,10,10,11,11,12,12,13,13,14,14,15,15,16,16,17,17,18,18,19,19,20,20,21,21,22,22,23,23,24,24,25,25,26,26,27,27,28,28,29,29,30,30],"right_children":[2,4,6,8,10,12,14,16,18,20,22,24,26,28,30,32,34,36,38,40,42,44,46,48,50,52,54,56,58,60,62,-1,-1,-1,-1,-1,-1,-1,-1,-1,-1,-1,-1,-1,-1,-1,-1,-1,-1,-1,-1,-1,-1,-1,-1,-1,-1,-1,-1,-1,-1,-1,-1],"split_conditions":[5.0468135E-1,3.7994993E-1,5.426817E-1,1.6506E4,3.1547216E-1,4.1462672E-1,2.9820016E-1,2.2362608E-2,4.545E5,1.1175637E-1,5.056731E-1,-1.9851E4,2.4876E5,2.70945E4,4.521402E-1,2.97E5,2.8961125E-1,3.12768E5,7.608049E-2,-1.6462E4,1.7137988E-1,-2.0539E4,5.9458506E-1,3.1066757E-1,-2.354E3,3E0,6.642608E-2,-3.684E3,-1.74E2,6.127042E-1,7.3351043E-1,1.0326119E-1,-7.617752E-2,3.8156595E-2,1.4303315E-3,3.696543E-2,9.175987E-2,5.906809E-2,1.7880348E-2,2.594844E-2,7.231737E-2,7.8592084E-2,1.2360758E-2,-3.6172036E-2,3.5363466E-3,-2.5787586E-2,-5.169518E-2,-1.9371675E-2,-4.9359974E-2,-1.922678E-2,2.1562174E-2,-6.1000574E-2,-9.413793E-2,4.9478773E-2,-3.3033907E-2,-9.1928266E-2,-1.5315882E-2,5.9324005E-3,1.2181757E-1,-2.9592726E-2,-5.1163286E-2,-5.789534E-2,-7.6050706E-2],"split_indices":[9,8,8,2,9,7,7,8,3,9,7,4,1,2,7,3,9,1,8,4,7,4,8,8,5,6,8,5,5,9,7,0,0,0,0,0,0,0,0,0,0,0,0,0,0,0,0,0,0,0,0,0,0,0,0,0,0,0,0,0,0,0,0],"split_type":[0,0,0,0,0,0,0,0,0,0,0,0,0,0,0,0,0,0,0,0,0,0,0,0,0,0,0,0,0,0,0,0,0,0,0,0,0,0,0,0,0,0,0,0,0,0,0,0,0,0,0,0,0,0,0,0,0,0,0,0,0,0,0],"sum_hessian":[1.80552E4,1.1853562E4,6.2016367E3,4.228982E3,7.62458E3,2.993417E3,3.20822E3,1.2145481E3,3.014434E3,2.5034255E3,5.1211543E3,2.308767E3,6.8465E2,2.1498157E2,2.9932383E3,6.54967E1,1.1490514E3,1.486798E3,1.527636E3,4.2275992E2,2.0806655E3,4.1366772E3,9.8447705E2,6.098357E2,1.6989313E3,1.2825294E2,5.5639703E2,1.2260016E2,9.238142E1,2.0898064E3,9.034318E2,6.1889767E1,3.606933E0,3.226397E2,8.2641174E2,4.6274475E2,1.0240532E3,2.2016132E2,1.3074747E3,1.3195413E2,2.908058E2,1.1379715E2,1.9668685E3,7.079972E2,3.4286802E3,4.111009E2,5.7337616E2,2.8544528E2,3.2439044E2,5.7148474E2,1.1274465E3,9.049533E1,3.775762E1,2.2718168E1,5.336789E2,1.2756096E1,1.0984406E2,8.637627E1,6.0051436E0,7.2174493E2,1.3680616E3,6.04998E2,2.9843384E2],"tree_param":{"num_deleted":"0","num_feature":"10","num_nodes":"63","size_leaf_vector":"1"}},{"base_weights":[-7.3517547E-3,1.1104345E-1,-3.198744E-1,2.528838E-1,-1.0513727E-1,-7.8669734E-2,-4.3301198E-1,2.9984918E-1,-1.14941046E-1,7.895014E-2,-2.5553647E-1,7.311846E-4,-3.7127718E-1,-3.3845508E-1,-5.644897E-1,-1.97921E-2,3.5855547E-1,5.7381947E-2,-2.78761E-1,1.3776435E-1,-3.8378003E-1,-1.8021491E-1,-4.8066404E-1,9.766574E-2,-2.9142827E-1,-5.6698734E-1,-2.7156025E-1,-3.0139107E-1,-7.1045876E-1,-5.0571126E-1,-7.0841545E-1,-2.9349888E-2,7.771631E-3,1.4786114E-2,4.5554664E-2,1.3103857E-2,-3.9951537E-2,9.4689116E-2,-3.139301E-2,2.3096777E-2,-1.3680412E-2,-1.4240972E-2,-5.090795E-2,-1.2273603E-2,-4.3927506E-2,-1.9279318E-2,-5.2247185E-2,-7.347998E-3,3.453061E-2,-5.1375534E-2,-1.5736474E-2,-4.7413643E-2,-8.460015E-2,-3.8344037E-2,2.4311254E-3,-4.553463E-2,-2.05821E-2,-2.9757845E-3,-7.258164E-2,-6.3110076E-2,-3.9018337E-2,-5.5668302E-2,-8.015573E-2],"categories":[],"categories_nodes":[],"categories_segments":[],"categories_sizes":[],"default_left":[1,1,1,1,0,1,0,0,0,1,0,0,0,1,1,0,0,0,0,0,0,1,0,0,0,0,0,0,0,0,0,0,0,0,0,0,0,0,0,0,0,0,0,0,0,0,0,0,0,0,0,0,0,0,0,0,0,0,0,0,0,0,0],"id":9,"left_children":[1,3,5,7,9,11,13,15,17,19,21,23,25,27,29,31,33,35,37,39,41,43,45,47,49,51,53,55,57,59,61,-1,-1,-1,-1,-1,-1,-1,-1,-1,-1,-1,-1,-1,-1,-1,-1,-1,-1,-1,-1,-1,-1,-1,-1,-1,-1,-1,-1,-1,-1,-1,-1],"loss_changes":[6.662802E2,4.0047498E2,1.3497809E2,1.3626465E2,1.4328839E2,3.6729424E1,4.1674744E1,1.3123657E2,2.5242973E1,6.339603E1,4.8209213E1,3.527202E1,6.431057E0,2.6828262E1,1.1546722E1,2.9008547E1,1.2067084E2,1.4736693E1,2.0051685E1,5.2896E1,7.873543E0,3.174804E1,8.485458E0,3.9660652E1,9.167406E0,2.5256424E0,7.4722195E0,2.6174835E1,1.8284225E0,1.4278564E1,5.2855377E0,0E0,0E0,0E0,0E0,0E0,0E0,0E0,0E0,0E0,0E0,0E0,0E0,0E0,0E0,0E0,0E0,0E0,0E0,0E0,0E0,0E0,0E0,0E0,0E0,0E0,0E0,0E0,0E0,0E0,0E0,0E0,0E0],"parents":[2147483647,0,0,1,1,2,2,3,3,4,4,5,5,6,6,7,7,8,8,9,9,10,10,11,11,12,12,13,13,14,14,15,15,16,16,17,17,18,18,19,19,20,20,21,21,22,22,23,23,24,24,25,25,26,26,27,27,28,28,29,29,30,30],"right_children":[2,4,6,8,10,12,14,16,18,20,22,24,26,28,30,32,34,36,38,40,42,44,46,48,50,52,54,56,58,60,62,-1,-1,-1,-1,-1,-1,-1,-1,-1,-1,-1,-1,-1,-1,-1,-1,-1,-1,-1,-1,-1,-1,-1,-1,-1,-1,-1,-1,-1,-1,-1,-1],"split_conditions":[5.567274E-1,5.526166E-1,4.2670873E-1,5.313992E-1,4.1359675E-1,4.0394792E-1,6.4686346E-1,-2.0024E4,4.1359675E-1,6.421301E-1,7.0125943E-1,-1.24E2,-2.422E3,7.023518E-1,4.521402E-1,2.6064E5,-1.854E3,7.888252E-1,3.375948E-2,6.795E5,6.297307E-1,5.345367E-1,4.1196674E-1,-1.315E3,1.6632E4,7.421816E-1,3.1995E4,2.1015E4,5.620605E-1,-1.7551E4,-1.7866E4,-2.9349888E-2,7.771631E-3,1.4786114E-2,4.5554664E-2,1.3103857E-2,-3.9951537E-2,9.4689116E-2,-3.139301E-2,2.3096777E-2,-1.3680412E-2,-1.4240972E-2,-5.090795E-2,-1.2273603E-2,-4.3927506E-2,-1.9279318E-2,-5.2247185E-2,-7.347998E-3,3.453061E-2,-5.1375534E-2,-1.5736474E-2,-4.7413643E-2,-8.460015E-2,-3.8344037E-2,2.4311254E-3,-4.553463E-2,-2.05821E-2,-2.9757845E-3,-7.258164E-2,-6.3110076E-2,-3.9018337E-2,-5.5668302E-2,-8.015573E-2],"split_indices":[9,8,8,7,9,7,8,4,9,7,8,5,5,7,7,1,5,7,8,3,8,7,7,5,2,9,2,2,9,4,4,0,0,0,0,0,0,0,0,0,0,0,0,0,0,0,0,0,0,0,0,0,0,0,0,0,0,0,0,0,0,0,0],"split_type":[0,0,0,0,0,0,0,0,0,0,0,0,0,0,0,0,0,0,0,0,0,0,0,0,0,0,0,0,0,0,0,0,0,0,0,0,0,0,0,0,0,0,0,0,0,0,0,0,0,0,0,0,0,0,0,0,0,0,0,0,0,0,0],"sum_hessian":[1.8005035E4,1.3058598E4,4.9464375E3,7.8849556E3,5.1736416E3,1.579884E3,3.3665535E3,6.992331E3,8.926247E2,2.3264995E3,2.8471418E3,1.2434606E3,3.3642355E2,1.9603048E3,1.4062488E3,1.0850674E3,5.9072637E3,4.3533914E2,4.5728555E2,2.0647646E3,2.6173474E2,2.1347224E3,7.1241943E2,9.3417847E2,3.0928207E2,1.1197299E2,2.2445056E2,1.7843353E3,1.7596939E2,1.0016815E3,4.0456726E2,2.844905E2,8.0057684E2,1.8629323E3,4.0443315E3,3.7551535E2,5.9823795E1,1.203231E1,4.4525327E2,1.5416156E3,5.231491E2,9.017088E1,1.7156386E2,1.7482941E3,3.8642838E2,9.105623E1,6.213632E2,5.528227E2,3.8135574E2,1.15277336E2,1.9400473E2,8.6039825E1,2.5933168E1,1.6265038E2,6.1800186E1,6.8197205E2,1.1023634E3,3.9473403E0,1.7202205E2,4.7819952E2,5.23482E2,1.5653731E2,2.4802995E2],"tree_param":{"num_deleted":"0","num_feature":"10","num_nodes":"63","size_leaf_vector":"1"}},{"base_weights":[-7.1898983E-3,9.485188E-2,-3.1065586E-1,2.2107965E-1,-1.0173172E-1,-1.7609419E-1,-4.7968265E-1,2.9865703E-1,2.1061562E-2,7.035466E-2,-2.39888E-1,4.1297004E-2,-2.575132E-1,-2.955087E-2,-5.108487E-1,6.158662E-2,4.2063376E-1,-2.8419542E-1,8.662173E-2,8.829104E-1,4.185317E-2,-1.7070997E-1,-4.5076483E-1,-4.6168438E-1,9.985417E-2,-4.526407E-1,-1.9658338E-1,-3.342659E-1,1.7848079E-1,-6.706598E-1,-4.6305287E-1,1.7890105E-1,3.7663996E-3,4.7962982E-2,1.0466876E-2,7.6680738E-3,-4.0232632E-2,1.4958707E-2,-2.4647316E-2,1.2708297E-1,4.9246468E-2,2.9960869E-2,-3.9232685E-3,-3.6413632E-2,-1.0095723E-2,-5.7611387E-2,-3.5796277E-2,-7.700292E-2,-2.2011159E-2,2.9765964E-2,-1.0588845E-2,-4.0998347E-2,-8.9728765E-2,-4.4462476E-2,-1.32716E-2,-1.6727097E-2,-7.792019E-2,-2.780637E-2,4.581804E-2,-7.438826E-2,-5.0874155E-2,-4.1964095E-2,-6.793121E-2],"categories":[],"categories_nodes":[],"categories_segments":[],"categories_sizes":[],"default_left":[1,1,1,1,0,0,0,0,1,0,0,0,0,0,0,0,0,0,0,0,0,0,0,0,0,0,0,0,0,0,0,0,0,0,0,0,0,0,0,0,0,0,0,0,0,0,0,0,0,0,0,0,0,0,0,0,0,0,0,0,0,0,0],"id":10,"left_children":[1,3,5,7,9,11,13,15,17,19,21,23,25,27,29,31,33,35,37,39,41,43,45,47,49,51,53,55,57,59,61,-1,-1,-1,-1,-1,-1,-1,-1,-1,-1,-1,-1,-1,-1,-1,-1,-1,-1,-1,-1,-1,-1,-1,-1,-1,-1,-1,-1,-1,-1,-1,-1],"loss_changes":[5.5622687E2,3.3358618E2,1.0272174E2,1.2702072E2,1.25001434E2,4.4581703E1,2.8082855E1,1.7054199E2,4.5830826E1,5.4197163E1,4.2464767E1,2.0280613E1,2.1693779E1,8.348306E0,1.3996857E1,8.2789795E1,7.2545654E1,1.7292068E1,3.9570854E1,1.1386383E1,4.731968E1,2.9611473E1,8.16626E0,5.1801195E0,2.5108513E1,7.886795E0,2.2087147E1,3.837264E0,1.0133266E1,4.70784E0,1.3281952E1,0E0,0E0,0E0,0E0,0E0,0E0,0E0,0E0,0E0,0E0,0E0,0E0,0E0,0E0,0E0,0E0,0E0,0E0,0E0,0E0,0E0,0E0,0E0,0E0,0E0,0E0,0E0,0E0,0E0,0E0,0E0,0E0],"parents":[2147483647,0,0,1,1,2,2,3,3,4,4,5,5,6,6,7,7,8,8,9,9,10,10,11,11,12,12,13,13,14,14,15,15,16,16,17,17,18,18,19,19,20,20,21,21,22,22,23,23,24,24,25,25,26,26,27,27,28,28,29,29,30,30],"right_children":[2,4,6,8,10,12,14,16,18,20,22,24,26,28,30,32,34,36,38,40,42,44,46,48,50,52,54,56,58,60,62,-1,-1,-1,-1,-1,-1,-1,-1,-1,-1,-1,-1,-1,-1,-1,-1,-1,-1,-1,-1,-1,-1,-1,-1,-1,-1,-1,-1,-1,-1,-1,-1],"split_conditions":[5.726825E-1,5.526166E-1,5.7836366E-1,2.7057946E-1,4.1359675E-1,2.5858158E-1,2.9820016E-1,-1.6869E4,1.37025E4,1.5364344E-1,7.0125943E-1,1.8E5,-2.996E3,-1.801E3,2.73636E5,2.4162589E-1,6.795E5,2.692858E-1,6.9390404E-1,-1.0806E4,1.7456427E-1,-2.55E3,-1.764E3,6.6585493E-1,4.545E5,7.992968E-1,2.47275E5,7.042742E-1,3.438E5,-1.4702E4,7.3646057E-1,1.7890105E-1,3.7663996E-3,4.7962982E-2,1.0466876E-2,7.6680738E-3,-4.0232632E-2,1.4958707E-2,-2.4647316E-2,1.2708297E-1,4.9246468E-2,2.9960869E-2,-3.9232685E-3,-3.6413632E-2,-1.0095723E-2,-5.7611387E-2,-3.5796277E-2,-7.700292E-2,-2.2011159E-2,2.9765964E-2,-1.0588845E-2,-4.0998347E-2,-8.9728765E-2,-4.4462476E-2,-1.32716E-2,-1.6727097E-2,-7.792019E-2,-2.780637E-2,4.581804E-2,-7.438826E-2,-5.0874155E-2,-4.1964095E-2,-6.793121E-2],"split_indices":[9,8,8,7,9,8,7,4,2,7,8,1,5,5,1,7,3,9,7,4,9,5,5,9,3,9,1,8,1,4,8,0,0,0,0,0,0,0,0,0,0,0,0,0,0,0,0,0,0,0,0,0,0,0,0,0,0,0,0,0,0,0,0],"split_type":[0,0,0,0,0,0,0,0,0,0,0,0,0,0,0,0,0,0,0,0,0,0,0,0,0,0,0,0,0,0,0,0,0,0,0,0,0,0,0,0,0,0,0,0,0,0,0,0,0,0,0,0,0,0,0,0,0,0,0,0,0,0,0],"sum_hessian":[1.7960432E4,1.3441393E4,4.5190405E3,8.185377E3,5.256015E3,2.517171E3,2.0018696E3,5.89752E3,2.2878572E3,2.3408105E3,2.9152043E3,6.860063E2,1.8311646E3,1.297556E2,1.872114E3,2.004037E3,3.8934832E3,4.0390167E2,1.8839556E3,7.83088E1,2.2625017E3,2.1964648E3,7.1873956E2,7.081875E1,6.1518756E2,4.3420288E2,1.3969617E3,5.239827E1,7.735733E1,4.2800305E2,1.444111E3,2.636642E1,1.9776705E3,3.2804492E3,6.130339E2,9.969524E1,3.0420642E2,1.584909E3,2.9904645E2,3.815042E1,4.0158382E1,5.407792E2,1.7217225E3,5.8103046E2,1.6154344E3,3.035382E2,4.1520132E2,3.0148932E1,4.066982E1,3.134159E2,3.0177167E2,3.9794775E2,3.6255146E1,2.8482535E2,1.1121364E3,3.9099323E1,1.3298946E1,2.939032E1,4.7967007E1,2.922482E2,1.3575487E2,1.2051328E3,2.3897821E2],"tree_param":{"num_deleted":"0","num_feature":"10","num_nodes":"63","size_leaf_vector":"1"}},{"base_weights":[-6.967955E-3,8.453009E-2,-2.88326E-1,2.9114902E-1,-1.7056944E-2,-1.6142206E-1,-4.522718E-1,1.1216933E0,2.7181688E-1,2.8187562E-2,-3.9807066E-1,2.824816E-1,-1.966109E-1,-2.7945409E-2,-4.829878E-1,1.7267972E0,7.4055153E-1,6.384464E-1,2.3014902E-1,2.0017184E-1,-6.3438155E-2,-9.53017E-2,-4.5388445E-1,-1.038975E-1,4.9291393E-1,2.508798E-1,-2.2263181E-1,-3.1185123E-1,1.5772441E-1,-4.3425083E-1,-6.433002E-1,1.9972286E-1,5.9373092E-2,3.0953845E-2,1.0679529E-1,-4.3960672E-2,6.647639E-2,3.3120418E-3,3.0680854E-2,-2.6305881E-3,2.6797047E-2,-2.3406286E-2,1.4940886E-3,1.969336E-2,-2.810647E-2,-3.344285E-2,-5.6482088E-2,-3.0378524E-2,3.514004E-2,1.04943514E-1,1.3805658E-2,9.830589E-3,9.520108E-2,-4.358195E-2,-1.7225174E-2,-1.532533E-2,-7.560297E-2,-2.57451E-2,3.968262E-2,-6.548723E-2,-3.853059E-2,-5.917876E-2,-8.042246E-2],"categories":[],"categories_nodes":[],"categories_segments":[],"categories_sizes":[],"default_left":[1,0,1,0,1,0,0,0,0,0,0,0,0,0,0,0,0,0,1,1,0,0,0,0,0,0,0,0,0,0,1,0,0,0,0,0,0,0,0,0,0,0,0,0,0,0,0,0,0,0,0,0,0,0,0,0,0,0,0,0,0,0,0],"id":11,"left_children":[1,3,5,7,9,11,13,15,17,19,21,23,25,27,29,31,33,35,37,39,41,43,45,47,49,51,53,55,57,59,61,-1,-1,-1,-1,-1,-1,-1,-1,-1,-1,-1,-1,-1,-1,-1,-1,-1,-1,-1,-1,-1,-1,-1,-1,-1,-1,-1,-1,-1,-1,-1,-1],"loss_changes":[4.6125128E2,2.8379346E2,9.140405E1,7.124878E1,1.562782E2,3.879326E1,2.4983124E1,2.2026665E1,6.640436E1,1.2771091E2,1.6217346E1,1.489448E1,2.6818428E1,6.929241E0,1.3693237E1,1.0550255E1,8.665478E0,1.28897705E1,5.9098022E1,4.3260162E1,7.07182E1,8.254759E0,1.0574402E1,6.040066E0,2.3230282E1,1.346787E1,2.3259605E1,3.5433216E0,8.001653E0,1.4589874E1,2.9630127E0,0E0,0E0,0E0,0E0,0E0,0E0,0E0,0E0,0E0,0E0,0E0,0E0,0E0,0E0,0E0,0E0,0E0,0E0,0E0,0E0,0E0,0E0,0E0,0E0,0E0,0E0,0E0,0E0,0E0,0E0,0E0,0E0],"parents":[2147483647,0,0,1,1,2,2,3,3,4,4,5,5,6,6,7,7,8,8,9,9,10,10,11,11,12,12,13,13,14,14,15,15,16,16,17,17,18,18,19,19,20,20,21,21,22,22,23,23,24,24,25,25,26,26,27,27,28,28,29,29,30,30],"right_children":[2,4,6,8,10,12,14,16,18,20,22,24,26,28,30,32,34,36,38,40,42,44,46,48,50,52,54,56,58,60,62,-1,-1,-1,-1,-1,-1,-1,-1,-1,-1,-1,-1,-1,-1,-1,-1,-1,-1,-1,-1,-1,-1,-1,-1,-1,-1,-1,-1,-1,-1,-1,-1],"split_conditions":[5.726825E-1,3.5171765E-1,5.7836366E-1,1.0860547E-1,6.3143384E-1,9.408267E-2,2.9820016E-1,-1.0748E4,1.4916746E-1,3.4252888E-1,2.2888342E-1,3.15E5,2.4798763E-1,-1.801E3,7.1952057E-1,6.705E5,3.0942E5,1.0188E5,1.64295E4,1.6065E4,-2.046E3,7.049582E-1,6.148782E-1,1.6875E4,4.59E5,-3.49E2,2.47275E5,7.042742E-1,3.438E5,1.4778E4,5.894406E-1,1.9972286E-1,5.9373092E-2,3.0953845E-2,1.0679529E-1,-4.3960672E-2,6.647639E-2,3.3120418E-3,3.0680854E-2,-2.6305881E-3,2.6797047E-2,-2.3406286E-2,1.4940886E-3,1.969336E-2,-2.810647E-2,-3.344285E-2,-5.6482088E-2,-3.0378524E-2,3.514004E-2,1.04943514E-1,1.3805658E-2,9.830589E-3,9.520108E-2,-4.358195E-2,-1.7225174E-2,-1.532533E-2,-7.560297E-2,-2.57451E-2,3.968262E-2,-6.548723E-2,-3.853059E-2,-5.917876E-2,-8.042246E-2],"split_indices":[9,8,8,7,7,8,7,4,9,9,9,1,7,5,8,3,1,1,2,2,5,7,8,2,3,5,1,8,1,2,7,0,0,0,0,0,0,0,0,0,0,0,0,0,0,0,0,0,0,0,0,0,0,0,0,0,0,0,0,0,0,0,0],"split_type":[0,0,0,0,0,0,0,0,0,0,0,0,0,0,0,0,0,0,0,0,0,0,0,0,0,0,0,0,0,0,0,0,0,0,0,0,0,0,0,0,0,0,0,0,0,0,0,0,0,0,0,0,0,0,0,0,0,0,0,0,0,0,0],"sum_hessian":[1.7915102E4,1.3519303E4,4.395798E3,4.4554507E3,9.063853E3,2.478936E3,1.9168616E3,1.000511E2,4.3553994E3,8.102612E3,9.6124054E2,1.8155907E2,2.297377E3,1.2951974E2,1.7873419E3,3.730104E1,6.2750057E1,4.430188E2,3.9123806E3,2.8158987E3,5.2867134E3,1.5003952E2,8.1120105E2,6.4195206E1,1.1736386E2,1.25773056E2,2.171604E3,5.0943287E1,7.857646E1,1.3734921E3,4.1384985E2,2.9498014E1,7.803028E0,2.7928518E1,3.4821537E1,1.0183043E1,4.3283575E2,1.0962516E3,2.816129E3,6.4889874E2,2.167E3,1.6634763E3,3.6232368E3,5.8286022E1,9.17535E1,3.9253516E2,4.186659E2,4.484142E1,1.9353785E1,4.4935062E1,7.24288E1,1.0423136E2,2.1541693E1,4.1363217E2,1.7579717E3,3.853061E1,1.2412676E1,2.8687265E1,4.98892E1,2.4713606E2,1.126356E3,3.17041E2,9.680887E1],"tree_param":{"num_deleted":"0","num_feature":"10","num_nodes":"63","size_leaf_vector":"1"}},{"base_weights":[-6.6500558E-3,8.441797E-2,-2.447959E-1,1.9449331E-1,-8.129211E-2,-3.3054624E-2,-3.519376E-1,2.8740272E-1,4.9684674E-2,-2.3308069E-2,-3.59617E-1,5.090192E-1,-8.002599E-2,-2.8422892E-1,-5.406072E-1,7.467076E-2,5.5250514E-1,5.8354414E-1,1.9523514E-2,-2.9571906E-1,5.778545E-2,-2.9693076E-1,-5.948319E-1,7.9066783E-1,1.4553629E-1,-2.9232096E-2,-4.4936237E-1,-2.1223062E-1,-5.1645446E-1,-1.3975582E-1,-5.6701225E-1,1.3786698E-2,-1.8469207E-2,3.7309255E-2,7.737401E-2,1.4363563E-1,3.8278505E-2,1.2883198E-2,-8.28101E-3,8.605356E-3,-3.3617537E-2,-1.9856991E-2,1.3091102E-2,-4.052129E-2,-1.2201516E-2,6.767019E-2,-6.1152406E-2,9.6749574E-2,1.0243276E-2,-2.953138E-2,4.8213985E-2,-2.9703334E-2,3.4315535E-3,-7.854464E-2,-3.6559217E-2,-1.2899853E-2,-4.2834084E-2,1.1163776E-1,-5.2609492E-2,-3.0241502E-2,1.1646801E-1,-4.23863E-2,-6.123215E-2],"categories":[],"categories_nodes":[],"categories_segments":[],"categories_sizes":[],"default_left":[1,1,0,1,1,0,0,0,0,0,0,0,1,1,0,1,1,0,0,1,0,0,1,0,0,0,0,1,0,0,0,0,0,0,0,0,0,0,0,0,0,0,0,0,0,0,0,0,0,0,0,0,0,0,0,0,0,0,0,0,0,0,0],"id":12,"left_children":[1,3,5,7,9,11,13,15,17,19,21,23,25,27,29,31,33,35,37,39,41,43,45,47,49,51,53,55,57,59,61,-1,-1,-1,-1,-1,-1,-1,-1,-1,-1,-1,-1,-1,-1,-1,-1,-1,-1,-1,-1,-1,-1,-1,-1,-1,-1,-1,-1,-1,-1,-1,-1],"loss_changes":[3.8755316E2,2.3580728E2,1.12131714E2,1.0449075E2,8.326912E1,4.2357925E1,4.1775482E1,2.6679367E2,4.8890827E1,9.437978E1,1.2940552E1,1.34663925E1,2.8695587E1,4.0310898E1,9.083984E0,4.3070457E1,8.3315186E1,2.7250042E1,3.217792E1,1.5166069E1,6.1748173E1,1.3292366E1,4.365906E0,8.97002E0,8.918814E0,2.2922853E1,4.9197845E0,3.3168747E1,9.582489E0,1.1985902E1,5.0063477E0,0E0,0E0,0E0,0E0,0E0,0E0,0E0,0E0,0E0,0E0,0E0,0E0,0E0,0E0,0E0,0E0,0E0,0E0,0E0,0E0,0E0,0E0,0E0,0E0,0E0,0E0,0E0,0E0,0E0,0E0,0E0,0E0],"parents":[2147483647,0,0,1,1,2,2,3,3,4,4,5,5,6,6,7,7,8,8,9,9,10,10,11,11,12,12,13,13,14,14,15,15,16,16,17,17,18,18,19,19,20,20,21,21,22,22,23,23,24,24,25,25,26,26,27,27,28,28,29,29,30,30],"right_children":[2,4,6,8,10,12,14,16,18,20,22,24,26,28,30,32,34,36,38,40,42,44,46,48,50,52,54,56,58,60,62,-1,-1,-1,-1,-1,-1,-1,-1,-1,-1,-1,-1,-1,-1,-1,-1,-1,-1,-1,-1,-1,-1,-1,-1,-1,-1,-1,-1,-1,-1,-1,-1],"split_conditions":[6.163374E-1,4.1359675E-1,4.3296167E-1,4.545E5,4.9999398E-1,2.4485081E-1,7.1952057E-1,3.0942E5,1.940977E-1,-1.9851E4,7.657237E-1,-1.0864E4,6.5032035E-1,6.785677E-1,3.041834E-1,3.3581677E-1,2.5407E4,-1.3354E4,3.556387E-1,1.2482171E-1,-3.052E3,2.98395E4,9.653053E-3,8.1E5,3.55536E5,-1.9732E4,-3.773E3,4.1196674E-1,1.3035807E-1,5.05035E4,5.691488E-1,1.3786698E-2,-1.8469207E-2,3.7309255E-2,7.737401E-2,1.4363563E-1,3.8278505E-2,1.2883198E-2,-8.28101E-3,8.605356E-3,-3.3617537E-2,-1.9856991E-2,1.3091102E-2,-4.052129E-2,-1.2201516E-2,6.767019E-2,-6.1152406E-2,9.6749574E-2,1.0243276E-2,-2.953138E-2,4.8213985E-2,-2.9703334E-2,3.4315535E-3,-7.854464E-2,-3.6559217E-2,-1.2899853E-2,-4.2834084E-2,1.1163776E-1,-5.2609492E-2,-3.0241502E-2,1.1646801E-1,-4.23863E-2,-6.123215E-2],"split_indices":[8,9,9,3,7,7,8,1,7,4,7,4,7,9,7,7,2,4,9,8,5,2,8,1,1,4,5,7,7,2,9,0,0,0,0,0,0,0,0,0,0,0,0,0,0,0,0,0,0,0,0,0,0,0,0,0,0,0,0,0,0,0,0],"split_type":[0,0,0,0,0,0,0,0,0,0,0,0,0,0,0,0,0,0,0,0,0,0,0,0,0,0,0,0,0,0,0,0,0,0,0,0,0,0,0,0,0,0,0,0,0,0,0,0,0,0,0,0,0,0,0,0,0,0,0,0,0,0,0],"sum_hessian":[1.7867957E4,1.2925741E4,4.942215E3,7.7665337E3,5.1592075E3,1.6609777E3,3.2812373E3,4.730472E3,3.0360615E3,4.27059E3,8.8861774E2,1.3166452E2,1.5293131E3,2.4165178E3,8.6471954E2,2.6251763E3,2.1052961E3,1.6137311E2,2.8746885E3,9.7906116E2,3.2915288E3,7.034155E2,1.8520221E2,7.352084E1,5.814368E1,1.3453673E3,1.8394583E2,1.8460802E3,5.704377E2,5.3829704E1,8.1088983E2,2.1112246E3,5.139515E2,1.1640142E3,9.4128186E2,2.9577036E1,1.3179607E2,1.3898501E3,1.4848384E3,9.370174E1,8.8535944E2,7.301469E2,2.5613818E3,4.3364767E2,2.6976782E2,1.8874171E0,1.8331479E2,5.8169594E1,1.5351249E1,2.5226788E1,3.2916893E1,2.5731616E2,1.0880511E3,3.503003E1,1.489158E2,1.3339308E3,5.121494E2,2.6743503E0,5.677633E2,4.8544514E1,5.285189E0,1.9744391E2,6.134459E2],"tree_param":{"num_deleted":"0","num_feature":"10","num_nodes":"63","size_leaf_vector":"1"}},{"base_weights":[-6.406914E-3,6.8930455E-2,-2.5073916E-1,1.24605566E-1,-2.0006453E-1,-7.1299896E-2,-3.50962E-1,1.7714594E-1,-8.652133E-2,-1.5309823E-1,-5.1685584E-1,-3.0924138E-1,-7.84573E-3,-3.0826637E-1,-5.911156E-1,-4.6800938E-2,2.8752527E-1,7.310895E-2,-1.739268E-1,-6.5394856E-2,-3.1844175E-1,-4.2778617E-1,-6.9964385E-1,-2.3071277E-1,-6.1999905E-1,2.0626277E-1,-1.6578743E-1,-2.5129044E-1,-4.9484345E-1,-4.9553546E-1,-7.459856E-1,1.8017076E-2,-1.1173031E-2,3.8685184E-2,1.2669136E-2,9.964231E-3,-4.2209197E-2,-5.0916463E-2,-1.14327995E-2,-2.1128986E-2,4.165486E-3,5.176833E-2,-3.515191E-2,-3.2236192E-2,-6.0555037E-2,3.0148922E-2,-7.232226E-2,-4.1776672E-2,-6.045261E-3,-2.8155727E-2,-7.951442E-2,9.115663E-3,1.20679915E-1,6.9957845E-2,-1.8560072E-2,-4.074641E-2,-1.602338E-2,-7.384042E-2,-4.4934217E-2,-2.5618378E-2,-5.8115598E-2,-7.696432E-2,-5.2395347E-3],"categories":[],"categories_nodes":[],"categories_segments":[],"categories_sizes":[],"default_left":[1,1,1,0,1,0,1,1,0,0,0,1,0,0,0,0,0,1,0,0,0,0,0,0,0,0,0,0,0,0,0,0,0,0,0,0,0,0,0,0,0,0,0,0,0,0,0,0,0,0,0,0,0,0,0,0,0,0,0,0,0,0,0],"id":13,"left_children":[1,3,5,7,9,11,13,15,17,19,21,23,25,27,29,31,33,35,37,39,41,43,45,47,49,51,53,55,57,59,61,-1,-1,-1,-1,-1,-1,-1,-1,-1,-1,-1,-1,-1,-1,-1,-1,-1,-1,-1,-1,-1,-1,-1,-1,-1,-1,-1,-1,-1,-1,-1,-1],"loss_changes":[3.2814502E2,2.0408655E2,7.553067E1,1.2524826E2,3.4690964E1,2.2748993E1,2.7455292E1,2.234826E2,3.141074E1,2.9512619E1,4.6062927E0,7.5982857E0,4.029815E1,2.4226044E1,5.6368866E0,4.4018852E1,9.669235E1,1.0512976E1,2.9000935E1,2.0812147E1,1.9696976E1,3.6497116E0,2.511219E0,8.090358E0,3.5341988E0,5.815329E1,1.1887629E1,2.4917625E1,5.5953827E0,5.054371E0,2.4682312E0,0E0,0E0,0E0,0E0,0E0,0E0,0E0,0E0,0E0,0E0,0E0,0E0,0E0,0E0,0E0,0E0,0E0,0E0,0E0,0E0,0E0,0E0,0E0,0E0,0E0,0E0,0E0,0E0,0E0,0E0,0E0,0E0],"parents":[2147483647,0,0,1,1,2,2,3,3,4,4,5,5,6,6,7,7,8,8,9,9,10,10,11,11,12,12,13,13,14,14,15,15,16,16,17,17,18,18,19,19,20,20,21,21,22,22,23,23,24,24,25,25,26,26,27,27,28,28,29,29,30,30],"right_children":[2,4,6,8,10,12,14,16,18,20,22,24,26,28,30,32,34,36,38,40,42,44,46,48,50,52,54,56,58,60,62,-1,-1,-1,-1,-1,-1,-1,-1,-1,-1,-1,-1,-1,-1,-1,-1,-1,-1,-1,-1,-1,-1,-1,-1,-1,-1,-1,-1,-1,-1,-1,-1],"split_conditions":[5.726825E-1,6.553428E-1,4.4458836E-1,6.795E5,6.4765024E-1,2.4876E5,6.2862134E-1,1.6506E4,3.5729328E-1,7.1766776E-1,7.981593E-1,3.79717E-1,4.545E5,6.9086957E-1,-1.6579E4,2.5670558E-1,4.545E5,7.3351043E-1,8.24823E5,-1.649E3,1.0278201E-1,5.2449644E-1,9.261717E-2,9.9E4,1.0116E4,5.369175E5,1.8944645E-1,2.11095E4,2.4876E5,7.049582E-1,-1.74E2,1.8017076E-2,-1.1173031E-2,3.8685184E-2,1.2669136E-2,9.964231E-3,-4.2209197E-2,-5.0916463E-2,-1.14327995E-2,-2.1128986E-2,4.165486E-3,5.176833E-2,-3.515191E-2,-3.2236192E-2,-6.0555037E-2,3.0148922E-2,-7.232226E-2,-4.1776672E-2,-6.045261E-3,-2.8155727E-2,-7.951442E-2,9.115663E-3,1.20679915E-1,6.9957845E-2,-1.8560072E-2,-4.074641E-2,-1.602338E-2,-7.384042E-2,-4.4934217E-2,-2.5618378E-2,-5.8115598E-2,-7.696432E-2,-5.2395347E-3],"split_indices":[9,8,8,3,7,1,7,2,9,8,7,7,3,8,4,9,3,7,1,5,9,9,9,0,2,1,7,2,1,7,5,0,0,0,0,0,0,0,0,0,0,0,0,0,0,0,0,0,0,0,0,0,0,0,0,0,0,0,0,0,0,0,0],"split_type":[0,0,0,0,0,0,0,0,0,0,0,0,0,0,0,0,0,0,0,0,0,0,0,0,0,0,0,0,0,0,0,0,0,0,0,0,0,0,0,0,0,0,0,0,0,0,0,0,0,0,0,0,0,0,0,0,0,0,0,0,0,0,0],"sum_hessian":[1.782491E4,1.3624615E4,4.200294E3,1.1288683E4,2.335933E3,1.5058782E3,2.694416E3,9.039341E3,2.2493413E3,2.0356226E3,3.0031052E2,3.1622372E2,1.1896545E3,2.289637E3,4.0477905E2,2.9845696E3,6.054771E3,7.9591327E2,1.4534281E3,1.3310093E3,7.046133E2,2.0416467E2,9.6145836E1,2.5382457E2,6.2399174E1,5.048989E2,6.847556E2,1.7558053E3,5.338316E2,2.5289885E2,1.5188022E2,6.6348157E2,2.3210881E3,3.742254E3,2.3125173E3,7.561944E2,3.9718872E1,2.1824982E2,1.2351783E3,5.6288947E2,7.6811975E2,2.625641E1,6.783569E2,1.2992513E2,7.4239555E1,1.9411194E0,9.420472E1,1.2025471E2,1.3356985E2,2.2168818E1,4.0230354E1,4.537846E2,5.1114285E1,1.4559193E1,6.701964E2,6.4539557E2,1.1104097E3,8.163346E1,4.5219815E2,6.768309E1,1.8521574E2,1.467646E2,5.1156244E0],"tree_param":{"num_deleted":"0","num_feature":"10","num_nodes":"63","size_leaf_vector":"1"}},{"base_weights":[-6.151768E-3,1.8503079E-1,-8.7934725E-2,4.5523193E-1,1.3335997E-1,8.8648595E-2,-1.832292E-1,-8.0459334E-2,5.1423866E-1,5.673832E-1,1.0199362E-1,4.395587E-1,5.6769256E-2,-1.4313395E-1,-4.8065174E-1,1.8307996E-1,-1.3188536E-1,8.579318E-1,4.3910563E-1,9.29386E-1,3.1029055E-1,1.4685526E-1,-1.3570131E-1,-6.022252E-1,4.915922E-1,1.1068533E-1,-1.3622335E-1,-3.728091E-1,-9.4065644E-2,-4.0696505E-1,-5.839144E-1,2.570782E-3,-4.5887932E-2,9.939841E-2,3.5615742E-2,2.3136964E-2,5.7966035E-2,9.8043375E-2,-6.424665E-2,9.5429145E-2,2.1871489E-2,-1.8734349E-2,1.9133627E-2,9.903564E-3,-2.9536068E-2,3.5373796E-2,-7.276981E-2,1.4898268E-2,5.86964E-2,-1.2334307E-2,1.6123367E-2,-8.714781E-3,-4.656485E-2,2.1586223E-2,-3.9415922E-2,-2.487178E-2,1.7128481E-3,-5.790348E-2,-3.347225E-2,-3.9955374E-2,-6.289201E-2],"categories":[],"categories_nodes":[],"categories_segments":[],"categories_sizes":[],"default_left":[0,0,0,0,0,0,1,0,0,0,1,0,1,0,0,0,0,0,0,1,0,0,0,0,0,0,0,0,0,0,0,0,0,0,0,0,0,0,0,0,0,0,0,0,0,0,0,0,0,0,0,0,0,0,0,0,0,0,0,0,0],"id":14,"left_children":[1,3,5,7,9,11,13,15,17,19,21,23,25,27,29,-1,31,33,35,37,39,41,43,45,47,49,51,53,55,57,59,-1,-1,-1,-1,-1,-1,-1,-1,-1,-1,-1,-1,-1,-1,-1,-1,-1,-1,-1,-1,-1,-1,-1,-1,-1,-1,-1,-1,-1,-1],"loss_changes":[2.7816138E2,7.435661E1,2.0968893E2,2.7075302E1,6.087619E1,4.883922E1,9.644394E1,8.667113E0,1.9520355E1,2.7767014E1,4.4544662E1,2.0007492E1,4.1692883E1,8.035399E1,7.0746765E0,0E0,4.3616385E0,9.010651E0,1.8387833E1,1.0634331E1,1.0275078E1,5.2258537E1,2.489446E1,2.3861732E0,1.1246979E1,3.706255E1,1.4106676E1,1.5862457E1,1.0109883E2,6.818512E0,3.0500946E0,0E0,0E0,0E0,0E0,0E0,0E0,0E0,0E0,0E0,0E0,0E0,0E0,0E0,0E0,0E0,0E0,0E0,0E0,0E0,0E0,0E0,0E0,0E0,0E0,0E0,0E0,0E0,0E0,0E0,0E0],"parents":[2147483647,0,0,1,1,2,2,3,3,4,4,5,5,6,6,7,7,8,8,9,9,10,10,11,11,12,12,13,13,14,14,16,16,17,17,18,18,19,19,20,20,21,21,22,22,23,23,24,24,25,25,26,26,27,27,28,28,29,29,30,30],"right_children":[2,4,6,8,10,12,14,16,18,20,22,24,26,28,30,-1,32,34,36,38,40,42,44,46,48,50,52,54,56,58,60,-1,-1,-1,-1,-1,-1,-1,-1,-1,-1,-1,-1,-1,-1,-1,-1,-1,-1,-1,-1,-1,-1,-1,-1,-1,-1,-1,-1,-1,-1],"split_conditions":[3.3436832E-1,6.642608E-2,4.1359675E-1,-3.475E3,1.940977E-1,9.261717E-2,6.2862134E-1,1.2387034E-1,9.653053E-3,-1.0691E4,4.2269856E-1,-2.2074E4,4.4167247E-1,-2.0605E4,6.4536345E-1,1.8307996E-1,7.2E5,-9.938E3,2.03805E4,7.517237E-1,7.606872E-2,-2.167E4,4.3296167E-1,6.975E4,2.6064E5,-1.9497E4,7.754779E-1,5.7123643E-1,-1.801E3,3.48264E5,5.2449644E-1,2.570782E-3,-4.5887932E-2,9.939841E-2,3.5615742E-2,2.3136964E-2,5.7966035E-2,9.8043375E-2,-6.424665E-2,9.5429145E-2,2.1871489E-2,-1.8734349E-2,1.9133627E-2,9.903564E-3,-2.9536068E-2,3.5373796E-2,-7.276981E-2,1.4898268E-2,5.86964E-2,-1.2334307E-2,1.6123367E-2,-8.714781E-3,-4.656485E-2,2.1586223E-2,-3.9415922E-2,-2.487178E-2,1.7128481E-3,-5.790348E-2,-3.347225E-2,-3.9955374E-2,-6.289201E-2],"split_indices":[8,8,9,5,7,9,7,7,8,4,7,4,7,4,8,0,1,4,2,9,7,4,9,0,1,4,7,7,5,1,9,0,0,0,0,0,0,0,0,0,0,0,0,0,0,0,0,0,0,0,0,0,0,0,0,0,0,0,0,0,0],"split_type":[0,0,0,0,0,0,0,0,0,0,0,0,0,0,0,0,0,0,0,0,0,0,0,0,0,0,0,0,0,0,0,0,0,0,0,0,0,0,0,0,0,0,0,0,0,0,0,0,0,0,0,0,0,0,0,0,0,0,0,0,0],"sum_hessian":[1.7788361E4,5.329177E3,1.2459184E4,8.542507E2,4.4749263E3,4.3670283E3,8.0921553E3,8.4723785E1,7.6952686E2,3.004496E2,4.1744766E3,3.626283E2,4.0044E3,7.1321577E3,9.599979E2,1.3133204E0,8.341046E1,1.36176E2,6.333509E2,1.2368221E2,1.7676738E2,3.5120144E3,6.624623E2,1.6747425E1,3.4588086E2,3.1303147E3,8.7408527E2,1.2543405E3,5.877817E3,5.6311115E2,3.968868E2,5.690618E1,2.650428E1,1.06357124E2,2.9818874E1,2.5666022E2,3.7669064E2,1.2015626E2,3.5259573E0,2.0833826E1,1.5593355E2,4.121558E2,3.0998586E3,2.6833145E2,3.9413083E2,1.732033E0,1.5015392E1,7.587455E1,2.7000632E2,5.557708E2,2.574544E3,7.6185394E2,1.1223132E2,4.3581726E1,1.2107587E3,2.4579663E3,3.4198506E3,1.6443626E2,3.986749E2,7.9814445E1,3.1707236E2],"tree_param":{"num_deleted":"0","num_feature":"10","num_nodes":"61","size_leaf_vector":"1"}},{"base_weights":[-5.825174E-3,6.454803E-2,-2.0124878E-1,2.2462729E-1,-3.090559E-3,-2.9569846E-2,-2.9436535E-1,5.429116E-1,1.9142272E-1,-2.7844703E-1,3.5069335E-2,4.1628903E-1,-7.060672E-2,-2.3292741E-1,-4.7472557E-1,4.805811E-2,6.459934E-1,5.366603E-1,1.6697955E-1,6.079557E-1,-2.9070792E-1,9.0537064E-2,-1.9217025E-1,6.4781E-1,1.05335765E-1,3.818122E-3,-2.5605217E-1,-1.6772792E-1,-4.5491266E-1,-8.382333E-2,-5.0217533E-1,-2.3023307E-2,4.2662743E-2,7.9528205E-3,7.404389E-2,5.903101E-2,-4.337504E-2,-1.5706262E-3,2.160614E-2,1.5197009E-1,2.1649359E-2,-2.5040492E-2,-5.4315705E-2,1.7754449E-2,-1.3300947E-2,-2.299859E-2,2.820392E-2,7.8338414E-2,8.338512E-3,-2.881718E-2,3.8924735E-2,-1.1748887E-2,1.9150095E-2,-5.5429693E-2,-1.9311925E-2,-9.568462E-3,-3.657405E-2,3.913871E-3,-4.9236502E-2,-2.436588E-2,1.04710065E-1,-3.570378E-2,-5.4952737E-2],"categories":[],"categories_nodes":[],"categories_segments":[],"categories_sizes":[],"default_left":[1,0,0,0,0,0,0,0,0,0,0,0,1,1,0,0,0,0,1,1,1,1,0,0,0,1,0,1,0,0,0,0,0,0,0,0,0,0,0,0,0,0,0,0,0,0,0,0,0,0,0,0,0,0,0,0,0,0,0,0,0,0,0],"id":15,"left_children":[1,3,5,7,9,11,13,15,17,19,21,23,25,27,29,31,33,35,37,39,41,43,45,47,49,51,53,55,57,59,61,-1,-1,-1,-1,-1,-1,-1,-1,-1,-1,-1,-1,-1,-1,-1,-1,-1,-1,-1,-1,-1,-1,-1,-1,-1,-1,-1,-1,-1,-1,-1,-1],"loss_changes":[2.4406036E2,1.4127783E2,7.5104095E1,4.085556E1,9.63992E1,3.0281101E1,3.364438E1,1.8617271E1,2.9539001E1,1.2312592E1,1.0158011E2,9.974535E0,2.0909288E1,3.2838516E1,8.252792E0,6.851826E0,1.6123512E1,1.2318733E1,2.9416786E1,5.224029E0,1.1077187E1,1.2601091E2,2.8420727E1,6.0386353E0,6.8970246E0,2.4657375E1,8.036461E0,2.5064426E1,9.5618515E0,9.640793E0,4.7665863E0,0E0,0E0,0E0,0E0,0E0,0E0,0E0,0E0,0E0,0E0,0E0,0E0,0E0,0E0,0E0,0E0,0E0,0E0,0E0,0E0,0E0,0E0,0E0,0E0,0E0,0E0,0E0,0E0,0E0,0E0,0E0,0E0],"parents":[2147483647,0,0,1,1,2,2,3,3,4,4,5,5,6,6,7,7,8,8,9,9,10,10,11,11,12,12,13,13,14,14,15,15,16,16,17,17,18,18,19,19,20,20,21,21,22,22,23,23,24,24,25,25,26,26,27,27,28,28,29,29,30,30],"right_children":[2,4,6,8,10,12,14,16,18,20,22,24,26,28,30,32,34,36,38,40,42,44,46,48,50,52,54,56,58,60,62,-1,-1,-1,-1,-1,-1,-1,-1,-1,-1,-1,-1,-1,-1,-1,-1,-1,-1,-1,-1,-1,-1,-1,-1,-1,-1,-1,-1,-1,-1,-1,-1],"split_conditions":[6.163374E-1,3.4905526E-1,4.3296167E-1,8.172559E-2,-3.824E3,2.4485081E-1,7.1952057E-1,-1.8667E4,5.5249546E-2,1.7596424E-1,-9.2E1,-1.0864E4,6.795E5,6.785677E-1,3.041834E-1,5.4957394E-2,1.2231E4,9.045E5,1.4976E4,3.5233998E-1,6.075885E-1,2.9820016E-1,-1.8129E4,8.1E5,3.55536E5,2.475E4,8.73E5,4.1196674E-1,3.1601495E-1,5.05035E4,5.691488E-1,-2.3023307E-2,4.2662743E-2,7.9528205E-3,7.404389E-2,5.903101E-2,-4.337504E-2,-1.5706262E-3,2.160614E-2,1.5197009E-1,2.1649359E-2,-2.5040492E-2,-5.4315705E-2,1.7754449E-2,-1.3300947E-2,-2.299859E-2,2.820392E-2,7.8338414E-2,8.338512E-3,-2.881718E-2,3.8924735E-2,-1.1748887E-2,1.9150095E-2,-5.5429693E-2,-1.9311925E-2,-9.568462E-3,-3.657405E-2,3.913871E-3,-4.9236502E-2,-2.436588E-2,1.04710065E-1,-3.570378E-2,-5.4952737E-2],"split_indices":[8,9,9,9,5,7,8,4,8,7,5,4,3,9,7,9,2,3,2,9,7,7,4,1,1,2,1,7,7,2,9,0,0,0,0,0,0,0,0,0,0,0,0,0,0,0,0,0,0,0,0,0,0,0,0,0,0,0,0,0,0,0,0],"split_type":[0,0,0,0,0,0,0,0,0,0,0,0,0,0,0,0,0,0,0,0,0,0,0,0,0,0,0,0,0,0,0,0,0,0,0,0,0,0,0,0,0,0,0,0,0,0,0,0,0,0,0,0,0,0,0,0,0,0,0,0,0,0,0],"sum_hessian":[1.7744564E4,1.304695E4,4.6976147E3,3.8746208E3,9.172329E3,1.6524011E3,3.0452134E3,3.645789E2,3.5100417E3,1.1156509E3,8.056678E3,1.384981E2,1.5139031E3,2.2731714E3,7.7204193E2,6.3104816E1,3.014741E2,2.3069708E2,3.2793447E3,1.4558483E1,1.1010924E3,6.476426E3,1.5802526E3,7.876794E1,5.9730152E1,1.0810319E3,4.3287122E2,1.7584508E3,5.147207E2,5.0922806E1,7.2111914E2,3.659511E1,2.6509705E1,4.3344505E1,2.5812958E2,2.189822E2,1.1714883E1,6.9461664E2,2.5847283E3,3.5073895E0,1.1051094E1,9.512233E2,1.4986905E2,4.6620835E3,1.8143422E3,1.4640199E3,1.1623265E2,6.319955E1,1.5568383E1,2.5027077E1,3.4703075E1,6.568544E2,4.2417746E2,7.406463E1,3.588066E2,1.2904332E3,4.6801752E2,3.6266552E1,4.7845413E2,4.5304405E1,5.6184015E0,1.7949457E2,5.416246E2],"tree_param":{"num_deleted":"0","num_feature":"10","num_nodes":"63","size_leaf_vector":"1"}},{"base_weights":[-5.508863E-3,5.394798E-2,-2.0921241E-1,1.07452884E-1,-1.4333451E-1,4.3422442E-2,-2.6202747E-1,1.3296597E-2,2.8876495E-1,-8.732476E-2,-3.7689233E-1,-3.2364127E-1,9.92647E-2,-1.9942354E-1,-4.0519327E-1,1.5100309E-1,-8.330288E-2,4.5255306E-1,1.2229918E-1,-3.5532728E-1,-4.895633E-2,-4.3733284E-1,-1.6414765E-1,3.513486E-1,-3.8138756E-1,-7.242228E-2,2.8097576E-1,-1.7115617E-1,-5.502581E-1,-5.801773E-1,-3.4569603E-1,4.465108E-3,2.479239E-2,1.3717157E-2,-1.3511749E-2,1.739786E-2,8.305427E-2,-8.730361E-3,3.752524E-2,8.052825E-2,-3.8872037E-2,-2.3421526E-3,-5.6247313E-2,-1.654898E-2,-4.828702E-2,1.9739644E-1,-2.081891E-2,-6.3309215E-2,6.6697195E-2,9.914567E-2,-4.1722566E-2,1.0971483E-2,-2.7373625E-2,4.4639606E-2,-3.9290185E-3,-3.580826E-2,-1.2354451E-2,-6.9679014E-2,-4.1205194E-2,-6.962797E-2,-3.2216176E-2,-2.8195519E-2,-5.5601574E-2],"categories":[],"categories_nodes":[],"categories_segments":[],"categories_sizes":[],"default_left":[1,0,1,1,0,0,0,1,0,0,0,0,0,1,0,1,0,0,0,0,1,0,0,0,0,0,0,0,0,0,0,0,0,0,0,0,0,0,0,0,0,0,0,0,0,0,0,0,0,0,0,0,0,0,0,0,0,0,0,0,0,0,0],"id":16,"left_children":[1,3,5,7,9,11,13,15,17,19,21,23,25,27,29,31,33,35,37,39,41,43,45,47,49,51,53,55,57,59,61,-1,-1,-1,-1,-1,-1,-1,-1,-1,-1,-1,-1,-1,-1,-1,-1,-1,-1,-1,-1,-1,-1,-1,-1,-1,-1,-1,-1,-1,-1,-1,-1],"loss_changes":[2.1444077E2,1.446824E2,5.338649E1,1.8406033E2,3.822284E1,1.4227546E1,2.9574371E1,9.44277E1,1.00423004E2,2.4250706E1,7.197777E0,3.707532E0,1.8796764E1,2.2755302E1,1.0269684E1,3.0155037E1,4.76793E1,1.9541403E2,9.7008316E1,1.1761757E1,2.7072853E1,5.362808E0,1.2340048E1,2.828954E0,4.592453E0,1.1406249E1,1.5518938E1,1.8945316E1,3.1829338E0,7.3758087E0,9.937592E0,0E0,0E0,0E0,0E0,0E0,0E0,0E0,0E0,0E0,0E0,0E0,0E0,0E0,0E0,0E0,0E0,0E0,0E0,0E0,0E0,0E0,0E0,0E0,0E0,0E0,0E0,0E0,0E0,0E0,0E0,0E0,0E0],"parents":[2147483647,0,0,1,1,2,2,3,3,4,4,5,5,6,6,7,7,8,8,9,9,10,10,11,11,12,12,13,13,14,14,15,15,16,16,17,17,18,18,19,19,20,20,21,21,22,22,23,23,24,24,25,25,26,26,27,27,28,28,29,29,30,30],"right_children":[2,4,6,8,10,12,14,16,18,20,22,24,26,28,30,32,34,36,38,40,42,44,46,48,50,52,54,56,58,60,62,-1,-1,-1,-1,-1,-1,-1,-1,-1,-1,-1,-1,-1,-1,-1,-1,-1,-1,-1,-1,-1,-1,-1,-1,-1,-1,-1,-1,-1,-1,-1,-1],"split_conditions":[5.726825E-1,6.795E5,2.5858158E-1,2.5407E4,6.721248E-1,1.2231E4,6.4686346E-1,3.7994993E-1,4.545E5,8.14041E5,-4.41E2,4.725E4,-1.5479E4,7.023518E-1,3.022065E5,1.64295E4,2.2383131E-1,5.050665E5,6.795E5,1.4823015E-1,7.476525E-1,2E0,-4.31E2,8.719961E-1,-8.863E3,6.894792E-1,5.31E5,1.4778E4,-1.425E3,-1.4247E4,2.46483E5,4.465108E-3,2.479239E-2,1.3717157E-2,-1.3511749E-2,1.739786E-2,8.305427E-2,-8.730361E-3,3.752524E-2,8.052825E-2,-3.8872037E-2,-2.3421526E-3,-5.6247313E-2,-1.654898E-2,-4.828702E-2,1.9739644E-1,-2.081891E-2,-6.3309215E-2,6.6697195E-2,9.914567E-2,-4.1722566E-2,1.0971483E-2,-2.7373625E-2,4.4639606E-2,-3.9290185E-3,-3.580826E-2,-1.2354451E-2,-6.9679014E-2,-4.1205194E-2,-6.962797E-2,-3.2216176E-2,-2.8195519E-2,-5.5601574E-2],"split_indices":[9,3,8,2,8,2,8,8,3,1,5,0,4,7,1,2,9,1,1,7,7,6,5,7,5,9,3,2,5,4,0,0,0,0,0,0,0,0,0,0,0,0,0,0,0,0,0,0,0,0,0,0,0,0,0,0,0,0,0,0,0,0,0],"split_type":[0,0,0,0,0,0,0,0,0,0,0,0,0,0,0,0,0,0,0,0,0,0,0,0,0,0,0,0,0,0,0,0,0,0,0,0,0,0,0,0,0,0,0,0,0,0,0,0,0,0,0,0,0,0,0,0,0,0,0,0,0,0,0],"sum_hessian":[1.7703516E4,1.3704262E4,3.999255E3,1.0780848E4,2.9234138E3,6.915382E2,3.3077166E3,7.0966133E3,3.6842341E3,2.359059E3,5.6435474E2,9.068034E1,6.0085785E2,2.303033E3,1.00468353E3,2.9255537E3,4.1710596E3,1.8561865E3,1.8280477E3,2.9440268E2,2.0646565E3,4.3867264E2,1.2568207E2,6.745745E0,8.39346E1,3.092598E2,2.9159808E2,2.1326865E3,1.7034653E2,2.5270766E2,7.519759E2,1.3956051E3,1.5299486E3,7.934085E2,3.3776511E3,1.0694633E3,7.8672327E2,1.00004364E3,8.28004E2,7.5871887E0,2.868155E2,1.9678501E3,9.6806435E1,6.3605125E1,3.750675E2,1.6521745E0,1.2402989E2,1.3935049E0,5.3522406E0,1.4569907E0,8.247761E1,1.62602E2,1.4665779E2,1.9202275E2,9.957533E1,4.3161548E2,1.701071E3,8.072102E1,8.96255E1,1.7311182E2,7.959584E1,5.78878E2,1.7309789E2],"tree_param":{"num_deleted":"0","num_feature":"10","num_nodes":"63","size_leaf_vector":"1"}},{"base_weights":[-5.285644E-3,4.053554E-2,-2.2719575E-1,7.760597E-2,-1.9873795E-1,-8.3943196E-2,-3.19717E-1,5.082078E-1,6.0046997E-2,2.687962E-1,-2.2813953E-1,3.3140877E-1,-1.1890518E-1,-7.848313E-2,-3.5821724E-1,7.417361E-1,2.1002121E-1,-1.3580237E-1,9.596188E-2,-8.4088475E-2,6.203499E-1,-4.9471757E-1,-1.8560575E-1,6.1058927E-1,7.854152E-2,-2.3755988E-1,-2.279795E-2,-5.639328E-1,-8.063779E-3,-6.5915054E-1,-3.2647687E-1,8.230898E-3,8.43155E-2,4.4468384E-2,5.1827175E-3,-4.411987E-2,-1.0702189E-2,-4.774242E-3,1.478026E-2,1.1973206E-2,-8.64991E-2,-4.449783E-4,9.9271215E-2,-4.4085585E-2,-7.810023E-2,-1.5868692E-2,-5.4117955E-2,1.4215675E-1,1.878605E-2,-8.135234E-3,1.296898E-1,-1.6575566E-2,-4.5770537E-2,7.4696033E-3,-3.2120626E-2,1.6936248E-2,-6.4771995E-2,1.3459273E-2,-3.5447333E-2,4.057651E-3,-6.861953E-2,-2.5339738E-2,-4.728617E-2],"categories":[],"categories_nodes":[],"categories_segments":[],"categories_sizes":[],"default_left":[1,1,0,0,0,0,0,0,0,0,0,0,0,0,0,0,0,0,1,0,0,1,1,0,0,0,0,0,0,0,0,0,0,0,0,0,0,0,0,0,0,0,0,0,0,0,0,0,0,0,0,0,0,0,0,0,0,0,0,0,0,0,0],"id":17,"left_children":[1,3,5,7,9,11,13,15,17,19,21,23,25,27,29,31,33,35,37,39,41,43,45,47,49,51,53,55,57,59,61,-1,-1,-1,-1,-1,-1,-1,-1,-1,-1,-1,-1,-1,-1,-1,-1,-1,-1,-1,-1,-1,-1,-1,-1,-1,-1,-1,-1,-1,-1,-1,-1],"loss_changes":[1.7966124E2,1.299169E2,4.0052567E1,9.585128E1,2.7070763E1,1.72911E1,1.7032791E1,3.4433136E1,8.5724754E1,1.4531158E1,2.0874886E1,6.482134E0,1.2498699E1,8.682033E0,1.4913391E1,1.8533813E1,8.127228E0,1.655357E1,7.672283E1,9.514319E0,1.36344185E1,3.5698814E0,1.5193375E1,1.4753769E1,9.784523E0,7.679037E0,1.768114E1,2.0866356E0,1.1064286E1,2.8689728E0,1.5228455E1,0E0,0E0,0E0,0E0,0E0,0E0,0E0,0E0,0E0,0E0,0E0,0E0,0E0,0E0,0E0,0E0,0E0,0E0,0E0,0E0,0E0,0E0,0E0,0E0,0E0,0E0,0E0,0E0,0E0,0E0,0E0,0E0],"parents":[2147483647,0,0,1,1,2,2,3,3,4,4,5,5,6,6,7,7,8,8,9,9,10,10,11,11,12,12,13,13,14,14,15,15,16,16,17,17,18,18,19,19,20,20,21,21,22,22,23,23,24,24,25,25,26,26,27,27,28,28,29,29,30,30],"right_children":[2,4,6,8,10,12,14,16,18,20,22,24,26,28,30,32,34,36,38,40,42,44,46,48,50,52,54,56,58,60,62,-1,-1,-1,-1,-1,-1,-1,-1,-1,-1,-1,-1,-1,-1,-1,-1,-1,-1,-1,-1,-1,-1,-1,-1,-1,-1,-1,-1,-1,-1,-1,-1],"split_conditions":[6.5799034E-1,6.479769E-1,4.6865967E-1,1.4823015E-1,9.408267E-2,2.4485081E-1,4.1196674E-1,-1.0042E4,-3.209E3,-1.5162E4,-4.275E3,1.6875E5,-1.649E3,1.24515E4,-5.694E3,1.30455E4,9.908158E-2,1.87704E5,1.6506E4,-1.6993E4,-1.709E3,6.1801636E-1,6.9981396E-1,-1.535E3,2.3124316E-1,2.655E5,-1.15E2,6.635341E-1,6.795E5,-2.3099E4,7.248293E-1,8.230898E-3,8.43155E-2,4.4468384E-2,5.1827175E-3,-4.411987E-2,-1.0702189E-2,-4.774242E-3,1.478026E-2,1.1973206E-2,-8.64991E-2,-4.449783E-4,9.9271215E-2,-4.4085585E-2,-7.810023E-2,-1.5868692E-2,-5.4117955E-2,1.4215675E-1,1.878605E-2,-8.135234E-3,1.296898E-1,-1.6575566E-2,-4.5770537E-2,7.4696033E-3,-3.2120626E-2,1.6936248E-2,-6.4771995E-2,1.3459273E-2,-3.5447333E-2,4.057651E-3,-6.861953E-2,-2.5339738E-2,-4.728617E-2],"split_indices":[8,9,9,7,8,7,7,4,5,4,5,0,5,2,5,2,7,1,2,4,5,7,7,5,7,0,5,8,3,4,8,0,0,0,0,0,0,0,0,0,0,0,0,0,0,0,0,0,0,0,0,0,0,0,0,0,0,0,0,0,0,0,0],"split_type":[0,0,0,0,0,0,0,0,0,0,0,0,0,0,0,0,0,0,0,0,0,0,0,0,0,0,0,0,0,0,0,0,0,0,0,0,0,0,0,0,0,0,0,0,0,0,0,0,0,0,0,0,0,0,0,0,0,0,0,0,0,0,0],"sum_hessian":[1.7667053E4,1.4644082E4,3.022971E3,1.2680222E4,1.9638601E3,1.1870082E3,1.8359626E3,4.9571735E2,1.2184505E4,1.15711555E2,1.8481486E3,9.149997E1,1.0955083E3,2.5310464E2,1.582858E3,2.7716492E2,2.1855241E2,1.8877166E3,1.0296788E4,5.8126152E1,5.7585403E1,2.5284235E2,1.5953063E3,4.2815E1,4.8684975E1,4.8958774E2,6.0592053E2,3.1176321E1,2.2192831E2,1.4913441E2,1.4337235E3,3.718688E1,2.3997806E2,8.727662E1,1.3127579E2,1.6134268E2,1.7263739E3,2.7297905E3,7.5669976E3,4.676648E1,1.1359674E1,2.187262E1,3.5712784E1,2.1494283E2,3.7899532E1,1.4843773E3,1.1092896E2,1.3860904E1,2.8954094E1,4.3861885E1,4.823089E0,3.7049677E2,1.19090965E2,4.5727298E2,1.486475E2,3.0922217E0,2.8084099E1,1.5762679E2,6.4301544E1,5.530987E0,1.4360342E2,9.581292E2,4.755944E2],"tree_param":{"num_deleted":"0","num_feature":"10","num_nodes":"63","size_leaf_vector":"1"}},{"base_weights":[-4.9800575E-3,1.7345789E-1,-5.556244E-2,6.27619E-1,1.5372705E-1,-9.095696E-4,-2.211068E-1,5.906222E-1,1.8218514E0,3.7370083E-1,1.1643532E-1,4.724668E-2,-1.658579E-1,-1.8126719E-1,-4.591893E-1,6.46024E-1,-1.3720882E-1,3.493268E-2,2.1952005E-1,4.5309427E-1,1.06910385E-1,-2.5741833E-1,1.4031048E-1,-3.716768E-2,2.2427624E-1,9.411405E-1,-1.765546E-1,-3.4489757E-1,-1.2675612E-1,-4.1813922E-1,-7.77593E-1,1.5564904E-2,7.324302E-2,-6.8891145E-2,6.995896E-2,5.5319607E-2,1.6829012E-2,3.6652435E-2,-2.2650156E-2,1.1937722E-1,-2.7518211E-2,1.9025309E-2,-5.858169E-3,2.5521666E-3,-1.8427325E-2,3.8286403E-2,7.7071483E-3,1.13675535E-1,-7.357287E-2,-4.707932E-2,-1.3757795E-2,-4.301425E-2,-1.832353E-2,6.3589043E-3,-2.151299E-2,-5.9996493E-2,-3.4436848E-2,-4.358523E-2,-8.8254E-2],"categories":[],"categories_nodes":[],"categories_segments":[],"categories_sizes":[],"default_left":[0,0,1,1,0,1,1,1,1,0,0,1,0,0,0,0,0,0,0,1,0,0,0,1,0,0,0,0,0,1,0,0,0,0,0,0,0,0,0,0,0,0,0,0,0,0,0,0,0,0,0,0,0,0,0,0,0,0,0],"id":18,"left_children":[1,3,5,7,9,11,13,15,17,19,21,23,25,27,29,31,33,-1,-1,35,37,39,41,43,45,47,49,51,53,55,57,-1,-1,-1,-1,-1,-1,-1,-1,-1,-1,-1,-1,-1,-1,-1,-1,-1,-1,-1,-1,-1,-1,-1,-1,-1,-1,-1,-1],"loss_changes":[1.5922334E2,3.4817673E1,1.24353424E2,6.0771027E0,3.0598297E1,8.209521E1,3.2274216E1,6.4804E0,1.6439571E0,1.1410744E1,2.8557182E1,1.1955443E2,2.7821228E1,2.6037636E1,6.058014E0,6.1347694E0,6.0391045E0,0E0,0E0,1.17845E1,1.0935853E1,5.282257E0,2.9852234E1,4.9965816E1,6.027176E1,8.219868E0,2.64729E1,9.982613E0,3.6935707E1,5.624962E0,1.5738602E0,0E0,0E0,0E0,0E0,0E0,0E0,0E0,0E0,0E0,0E0,0E0,0E0,0E0,0E0,0E0,0E0,0E0,0E0,0E0,0E0,0E0,0E0,0E0,0E0,0E0,0E0,0E0,0E0],"parents":[2147483647,0,0,1,1,2,2,3,3,4,4,5,5,6,6,7,7,8,8,9,9,10,10,11,11,12,12,13,13,14,14,15,15,16,16,19,19,20,20,21,21,22,22,23,23,24,24,25,25,26,26,27,27,28,28,29,29,30,30],"right_children":[2,4,6,8,10,12,14,16,18,20,22,24,26,28,30,32,34,-1,-1,36,38,40,42,44,46,48,50,52,54,56,58,-1,-1,-1,-1,-1,-1,-1,-1,-1,-1,-1,-1,-1,-1,-1,-1,-1,-1,-1,-1,-1,-1,-1,-1,-1,-1,-1,-1],"split_conditions":[2.5858158E-1,9.653053E-3,5.567274E-1,7.2201073E-1,2.091547E-1,6.795E5,6.0205746E-1,5.213086E-1,2.475E5,-1.0192E4,-4.993E3,2.6217E4,1.0860547E-1,2.73636E5,2.745E5,-2.55E3,-8.72E2,3.493268E-2,2.1952005E-1,2.612094E-1,1.5075E5,1.3035807E-1,-1.53E2,2.7057946E-1,4.545E5,6.764232E-1,8.14041E5,-1.3457E4,4.545E5,2.88E5,5.4865044E-1,1.5564904E-2,7.324302E-2,-6.8891145E-2,6.995896E-2,5.5319607E-2,1.6829012E-2,3.6652435E-2,-2.2650156E-2,1.1937722E-1,-2.7518211E-2,1.9025309E-2,-5.858169E-3,2.5521666E-3,-1.8427325E-2,3.8286403E-2,7.7071483E-3,1.13675535E-1,-7.357287E-2,-4.707932E-2,-1.3757795E-2,-4.301425E-2,-1.832353E-2,6.3589043E-3,-2.151299E-2,-5.9996493E-2,-3.4436848E-2,-4.358523E-2,-8.8254E-2],"split_indices":[8,8,9,7,9,3,7,7,3,4,5,2,7,1,0,5,5,0,0,7,0,7,5,7,3,8,1,4,3,3,8,0,0,0,0,0,0,0,0,0,0,0,0,0,0,0,0,0,0,0,0,0,0,0,0,0,0,0,0],"split_type":[0,0,0,0,0,0,0,0,0,0,0,0,0,0,0,0,0,0,0,0,0,0,0,0,0,0,0,0,0,0,0,0,0,0,0,0,0,0,0,0,0,0,0,0,0,0,0,0,0,0,0,0,0,0,0,0,0,0,0],"sum_hessian":[1.7638812E4,3.895245E3,1.3743567E4,1.6089848E2,3.7343467E3,1.0333175E4,3.4103923E3,1.5751335E2,3.3851402E0,5.4000195E2,3.1943447E3,7.998691E3,2.3344841E3,2.9230278E3,4.8736453E2,1.4647612E2,1.103722E1,1.076192E0,2.308948E0,4.156203E2,1.2438166E2,1.9116528E2,3.0031794E3,5.4166284E3,2.5820625E3,2.1509336E1,2.3129749E3,7.291002E2,2.1939275E3,4.3375595E2,5.3608578E1,2.2362915E1,1.2411321E2,6.758234E0,4.2789855E0,3.068334E2,1.0878691E2,6.9874214E1,5.4507442E1,1.5111474E0,1.8965414E2,2.4004583E3,6.0272107E2,3.7986519E3,1.6179768E3,1.2422024E3,1.3398601E3,1.9550745E1,1.958592E0,2.69256E2,2.0437189E3,4.7629034E2,2.5280988E2,6.9572046E2,1.4982072E3,1.2313284E2,3.106231E2,1.3805742E1,3.9802837E1],"tree_param":{"num_deleted":"0","num_feature":"10","num_nodes":"59","size_leaf_vector":"1"}},{"base_weights":[-4.6776487E-3,2.827042E-2,-2.4918821E-1,-1.6724914E-1,7.134699E-2,-1.553611E-1,-3.6155534E-1,4.369674E-1,-1.9809204E-1,-4.1354958E-2,1.6883221E-1,9.009468E-1,-1.8711239E-1,1.0957098E0,-3.6994672E-1,5.174729E-1,-4.530801E-1,-1.1627413E-1,-3.4273317E-1,1.4845763E-2,-2.1336071E-1,2.3686492E-1,-8.333101E-2,1.1339717E0,-2.5667804E-1,9.2088796E-2,-2.4269931E-1,1.6722517E0,-1.0781533E-2,-2.4070829E-1,-4.4958675E-1,-5.4395318E-2,5.7892542E-2,3.6431503E-2,-7.196642E-2,6.4219744E-3,-1.8818935E-2,-6.381942E-2,-3.0961324E-2,-1.1567616E-2,1.2323233E-2,-6.3768364E-2,-1.7930143E-2,2.9285917E-2,1.1158541E-3,3.6418166E-3,-3.2398224E-2,6.4780205E-2,2.0269664E-1,5.251652E-2,-6.2086623E-2,4.443231E-2,-1.3984029E-2,-4.5244005E-2,-1.7568268E-2,2.1079026E-1,3.1619497E-2,-4.762219E-2,-1.5465721E-2,-6.904055E-2,-4.0604383E-2],"categories":[],"categories_nodes":[],"categories_segments":[],"categories_sizes":[],"default_left":[1,0,0,0,0,0,0,1,0,0,0,0,0,0,0,0,0,0,0,1,1,1,1,0,0,0,0,0,0,0,0,0,0,0,0,0,0,0,0,0,0,0,0,0,0,0,0,0,0,0,0,0,0,0,0,0,0,0,0,0,0],"id":19,"left_children":[1,3,5,7,9,11,13,15,17,19,21,23,25,27,29,31,33,35,37,39,41,43,45,47,49,51,53,55,-1,57,59,-1,-1,-1,-1,-1,-1,-1,-1,-1,-1,-1,-1,-1,-1,-1,-1,-1,-1,-1,-1,-1,-1,-1,-1,-1,-1,-1,-1,-1,-1],"loss_changes":[1.4183421E2,1.306855E2,2.19859E1,5.2293526E1,1.3970088E2,3.8439358E1,1.2029587E1,1.0005812E1,3.1510979E1,5.7017464E1,1.1698163E2,9.319893E0,1.7227867E1,4.131851E0,9.627441E0,8.502529E0,2.8432038E0,2.2134985E1,9.223206E0,6.2916214E1,2.0878174E1,6.7857544E1,4.1778404E1,1.0863235E1,2.1551907E0,1.5158571E1,1.2919811E1,1.643939E0,0E0,7.2788773E0,5.844467E0,0E0,0E0,0E0,0E0,0E0,0E0,0E0,0E0,0E0,0E0,0E0,0E0,0E0,0E0,0E0,0E0,0E0,0E0,0E0,0E0,0E0,0E0,0E0,0E0,0E0,0E0,0E0,0E0,0E0,0E0],"parents":[2147483647,0,0,1,1,2,2,3,3,4,4,5,5,6,6,7,7,8,8,9,9,10,10,11,11,12,12,13,13,14,14,15,15,16,16,17,17,18,18,19,19,20,20,21,21,22,22,23,23,24,24,25,25,26,26,27,27,29,29,30,30],"right_children":[2,4,6,8,10,12,14,16,18,20,22,24,26,28,30,32,34,36,38,40,42,44,46,48,50,52,54,56,-1,58,60,-1,-1,-1,-1,-1,-1,-1,-1,-1,-1,-1,-1,-1,-1,-1,-1,-1,-1,-1,-1,-1,-1,-1,-1,-1,-1,-1,-1,-1,-1],"split_conditions":[5.659111E-1,-1.9851E4,7.049582E-1,5.659111E-1,-1.409E3,-2.2618E4,9.653053E-3,7.1215516E-1,5.8317673E-1,6.795E5,-9.886E3,6.525419E-1,2.3922628E-1,-1.5845E4,4.632753E-1,1.51272E5,-2.2449E4,4.0835884E-1,-2.3796E4,2.11095E4,6.885E5,6.795E5,1.8537848E-1,5.275871E-1,1.6785E4,-1.6337E4,-3.114E3,6.525E5,-1.0781533E-2,-2.967E3,2.4876E5,-5.4395318E-2,5.7892542E-2,3.6431503E-2,-7.196642E-2,6.4219744E-3,-1.8818935E-2,-6.381942E-2,-3.0961324E-2,-1.1567616E-2,1.2323233E-2,-6.3768364E-2,-1.7930143E-2,2.9285917E-2,1.1158541E-3,3.6418166E-3,-3.2398224E-2,6.4780205E-2,2.0269664E-1,5.251652E-2,-6.2086623E-2,4.443231E-2,-1.3984029E-2,-4.5244005E-2,-1.7568268E-2,2.1079026E-1,3.1619497E-2,-4.762219E-2,-1.5465721E-2,-6.904055E-2,-4.0604383E-2],"split_indices":[7,4,7,7,5,4,8,9,8,3,4,8,9,4,9,1,4,9,4,2,3,3,7,8,2,4,5,3,0,5,1,0,0,0,0,0,0,0,0,0,0,0,0,0,0,0,0,0,0,0,0,0,0,0,0,0,0,0,0,0,0],"split_type":[0,0,0,0,0,0,0,0,0,0,0,0,0,0,0,0,0,0,0,0,0,0,0,0,0,0,0,0,0,0,0,0,0,0,0,0,0,0,0,0,0,0,0,0,0,0,0,0,0,0,0,0,0,0,0,0,0,0,0,0,0],"sum_hessian":[1.7603832E4,1.5514165E4,2.0896665E3,2.8004346E3,1.271373E4,1.1400782E3,9.495883E2,1.353691E2,2.6650654E3,5.8969204E3,6.81681E3,3.2470436E1,1.1076078E3,4.694849E0,9.448935E2,1.2452436E2,1.0844727E1,1.70335E3,9.617155E2,4.4453667E3,1.4515541E3,5.368476E3,1.4483344E3,2.704652E1,5.4239154E0,1.837939E2,9.238139E2,2.9109256E0,1.7839235E0,3.617975E2,5.83096E2,6.3852296E0,1.1813913E2,2.5768952E0,8.267832E0,4.8534094E2,1.218009E3,9.509647E1,8.666191E2,2.0167168E3,2.42865E3,1.06538315E2,1.3450157E3,4.3011343E3,1.0673418E3,9.6766724E2,4.8066708E2,1.862954E1,8.416982E0,1.583158E0,3.8407574E0,7.2607704E1,1.111862E2,2.2230838E2,7.015055E2,1.7835134E0,1.1274121E0,9.560409E1,2.661934E2,8.70119E1,4.960841E2],"tree_param":{"num_deleted":"0","num_feature":"10","num_nodes":"61","size_leaf_vector":"1"}},{"base_weights":[-4.4565457E-3,3.143163E-2,-2.090747E-1,1.5114933E-1,-2.0154627E-2,-7.5855106E-2,-2.9414365E-1,2.892173E-1,9.991826E-2,5.399597E-1,-3.2877993E-2,-2.9810576E-2,-3.01858E-1,-2.2326458E-1,-3.9883587E-1,4.6542057E-1,2.0524196E-1,-3.0564437E-2,1.4635113E-1,8.5149527E-1,1.902812E-1,-1.3720359E-2,-3.5345185E-1,3.575913E-2,-2.2628957E-1,7.9724437E-1,-3.3179867E-1,-6.2572306E-1,-1.887187E-1,-2.4452855E-1,-4.641305E-1,-8.787768E-3,5.3912926E-2,2.6914194E-2,2.5967992E-4,3.1881088E-3,-3.204864E-2,2.7710497E-2,3.521999E-3,5.9405394E-2,1.2681012E-1,9.0389386E-2,6.3918056E-3,-1.5456172E-2,3.50217E-3,1.332484E-1,-3.647017E-2,4.9300607E-2,2.381658E-4,-1.7116744E-2,-6.385859E-2,-5.001325E-3,1.4179593E-1,2.8224722E-2,-3.7451643E-2,5.916482E-2,-7.00654E-2,-1.5641155E-2,-5.144294E-2,5.7359427E-2,-3.0986711E-2,-4.8305582E-2,-1.6497914E-3],"categories":[],"categories_nodes":[],"categories_segments":[],"categories_sizes":[],"default_left":[1,0,0,0,0,1,0,0,0,0,1,0,0,0,0,0,0,1,0,0,0,1,0,0,0,0,0,0,0,0,0,0,0,0,0,0,0,0,0,0,0,0,0,0,0,0,0,0,0,0,0,0,0,0,0,0,0,0,0,0,0,0,0],"id":20,"left_children":[1,3,5,7,9,11,13,15,17,19,21,23,25,27,29,31,33,35,37,39,41,43,45,47,49,51,53,55,57,59,61,-1,-1,-1,-1,-1,-1,-1,-1,-1,-1,-1,-1,-1,-1,-1,-1,-1,-1,-1,-1,-1,-1,-1,-1,-1,-1,-1,-1,-1,-1,-1,-1],"loss_changes":[1.2911401E2,9.238581E1,2.9710869E1,3.1835297E1,7.45261E1,1.0644842E1,1.1789886E1,1.7936287E1,1.992044E1,2.5141472E1,6.2783833E1,1.0979672E1,5.963187E0,1.3185097E1,6.385086E0,1.6056213E1,1.0709393E1,1.5644613E1,3.5221733E1,1.239032E1,9.926878E0,6.623995E1,1.1419815E1,9.757149E0,4.736706E0,2.6405497E0,4.546135E0,7.2748947E0,9.207268E0,1.0542125E1,3.822052E0,0E0,0E0,0E0,0E0,0E0,0E0,0E0,0E0,0E0,0E0,0E0,0E0,0E0,0E0,0E0,0E0,0E0,0E0,0E0,0E0,0E0,0E0,0E0,0E0,0E0,0E0,0E0,0E0,0E0,0E0,0E0,0E0],"parents":[2147483647,0,0,1,1,2,2,3,3,4,4,5,5,6,6,7,7,8,8,9,9,10,10,11,11,12,12,13,13,14,14,15,15,16,16,17,17,18,18,19,19,20,20,21,21,22,22,23,23,24,24,25,25,26,26,27,27,28,28,29,29,30,30],"right_children":[2,4,6,8,10,12,14,16,18,20,22,24,26,28,30,32,34,36,38,40,42,44,46,48,50,52,54,56,58,60,62,-1,-1,-1,-1,-1,-1,-1,-1,-1,-1,-1,-1,-1,-1,-1,-1,-1,-1,-1,-1,-1,-1,-1,-1,-1,-1,-1,-1,-1,-1,-1,-1],"split_conditions":[6.664813E-1,3.4905526E-1,4.5969045E-1,1.4916746E-1,1.3035807E-1,5.683199E-1,7.1952057E-1,1.2825E5,2.844E5,-1.0297E4,6.855603E-1,2.277E5,6.975E4,-5.694E3,6.0927564E-1,-2.0727E4,-1.0574E4,2.385E5,4.545E5,2.8116E4,4.0487838E-1,1.64295E4,9.653053E-3,9.261717E-2,7.6049244E-1,-6.99E2,9.261717E-2,4.1196674E-1,3.105E5,3.041834E-1,-1.0141E4,-8.787768E-3,5.3912926E-2,2.6914194E-2,2.5967992E-4,3.1881088E-3,-3.204864E-2,2.7710497E-2,3.521999E-3,5.9405394E-2,1.2681012E-1,9.0389386E-2,6.3918056E-3,-1.5456172E-2,3.50217E-3,1.332484E-1,-3.647017E-2,4.9300607E-2,2.381658E-4,-1.7116744E-2,-6.385859E-2,-5.001325E-3,1.4179593E-1,2.8224722E-2,-3.7451643E-2,5.916482E-2,-7.00654E-2,-1.5641155E-2,-5.144294E-2,5.7359427E-2,-3.0986711E-2,-4.8305582E-2,-1.6497914E-3],"split_indices":[8,9,9,9,7,7,8,0,1,4,7,0,0,5,9,4,4,3,3,2,9,2,8,9,8,5,9,7,0,7,4,0,0,0,0,0,0,0,0,0,0,0,0,0,0,0,0,0,0,0,0,0,0,0,0,0,0,0,0,0,0,0,0],"split_type":[0,0,0,0,0,0,0,0,0,0,0,0,0,0,0,0,0,0,0,0,0,0,0,0,0,0,0,0,0,0,0,0,0,0,0,0,0,0,0,0,0,0,0,0,0,0,0,0,0,0,0,0,0,0,0,0,0,0,0,0,0,0,0],"sum_hessian":[1.758049E4,1.4957863E4,2.6226277E3,4.503811E3,1.0454052E4,1.022798E3,1.5998297E3,1.2176345E3,3.2861765E3,2.3127577E2,1.0222776E4,8.5062787E2,1.721701E2,9.5583777E2,6.439919E2,3.9153802E2,8.2609644E2,8.625722E2,2.4236042E3,1.21549675E2,1.097261E2,9.647293E3,5.7548364E2,6.3839746E2,2.122304E2,3.886111E0,1.68284E2,7.420768E1,8.8163007E2,1.9289009E2,4.511018E2,4.600521E1,3.4553284E2,6.278034E2,1.9829305E2,7.10442E2,1.5213019E2,1.1128096E3,1.3107948E3,7.662514E1,4.4924534E1,1.5581167E1,9.414493E1,2.479769E3,7.1675234E3,3.0361164E0,5.724475E2,4.2493732E1,5.9590375E2,1.8845058E2,2.3779821E1,2.031965E0,1.8541461E0,1.0580947E1,1.5770305E2,3.9029055E0,7.030477E1,8.034193E2,7.821074E1,1.369036E1,1.7919972E2,4.3272754E2,1.8374273E1],"tree_param":{"num_deleted":"0","num_feature":"10","num_nodes":"63","size_leaf_vector":"1"}},{"base_weights":[-4.156493E-3,1.4008972E-1,-4.941498E-2,-8.616844E-2,1.721366E-1,-1.8189231E-2,-2.6237607E-1,-3.8928312E-1,-3.328613E-2,2.0734808E-1,-7.207016E-2,5.035568E-3,-2.7374768E-1,-4.2958894E-1,-2.0769973E-1,1.3653533E-1,-4.3861973E-1,1.0902562E0,-5.0452955E-2,2.4545684E-1,2.3413636E-2,9.35309E-2,-2.0393296E-1,7.338176E-2,-8.122997E-2,-2.1557626E-1,-5.003513E-1,-3.4910023E-1,-6.434194E-1,9.559708E-1,-2.177839E-1,-3.168377E-2,-8.539823E-2,2.5109494E-1,1.9624438E-2,3.7466174E-3,-3.6473837E-2,-4.7421227E-3,2.8061617E-2,3.2083005E-2,-6.3551436E-3,7.12332E-2,-2.5228136E-3,-1.3834481E-2,-6.0042705E-2,-3.025853E-4,4.5061655E-2,-1.9783607E-2,-1.0651828E-3,-1.1045199E-2,-4.2938583E-2,-8.7123044E-2,-4.3551836E-2,-2.6722858E-2,-6.23217E-2,-7.519574E-2,-4.6512496E-2,1.24735E-1,-6.421661E-2,-4.6954323E-2,-1.741816E-2],"categories":[],"categories_nodes":[],"categories_segments":[],"categories_sizes":[],"default_left":[0,0,1,0,0,1,0,0,0,0,0,1,0,1,0,0,0,0,0,0,0,0,0,0,1,0,0,1,0,0,0,0,0,0,0,0,0,0,0,0,0,0,0,0,0,0,0,0,0,0,0,0,0,0,0,0,0,0,0,0,0],"id":21,"left_children":[1,3,5,7,9,11,13,15,17,19,21,23,25,27,29,-1,31,33,35,37,39,41,43,45,47,49,51,53,55,57,59,-1,-1,-1,-1,-1,-1,-1,-1,-1,-1,-1,-1,-1,-1,-1,-1,-1,-1,-1,-1,-1,-1,-1,-1,-1,-1,-1,-1,-1,-1],"loss_changes":[1.1458763E2,3.0409966E1,8.883934E1,8.334235E0,3.159166E1,6.916469E1,1.5529892E1,7.2872114E0,8.628007E0,2.24926E1,1.0140358E1,6.2992634E1,1.2688995E1,7.0045395E0,1.5338345E1,0E0,3.5689878E0,8.059372E0,1.2137014E1,2.7391113E1,1.4297178E1,1.5167625E1,6.6354E0,1.7182329E2,3.886695E1,1.7354954E1,4.370655E0,6.7311554E0,1.8501854E0,6.0457277E0,1.3959206E1,0E0,0E0,0E0,0E0,0E0,0E0,0E0,0E0,0E0,0E0,0E0,0E0,0E0,0E0,0E0,0E0,0E0,0E0,0E0,0E0,0E0,0E0,0E0,0E0,0E0,0E0,0E0,0E0,0E0,0E0],"parents":[2147483647,0,0,1,1,2,2,3,3,4,4,5,5,6,6,7,7,8,8,9,9,10,10,11,11,12,12,13,13,14,14,16,16,17,17,18,18,19,19,20,20,21,21,22,22,23,23,24,24,25,25,26,26,27,27,28,28,29,29,30,30],"right_children":[2,4,6,8,10,12,14,16,18,20,22,24,26,28,30,-1,32,34,36,38,40,42,44,46,48,50,52,54,56,58,60,-1,-1,-1,-1,-1,-1,-1,-1,-1,-1,-1,-1,-1,-1,-1,-1,-1,-1,-1,-1,-1,-1,-1,-1,-1,-1,-1,-1,-1,-1],"split_conditions":[2.6651978E-1,1.87704E5,6.6585493E-1,-2.499E3,8.595E5,6.421301E-1,2.73636E5,1.0860547E-1,3.825E4,-1.33E2,1.6875E5,4.545E5,8.124998E-1,6.483207E-1,1.3680223E-1,1.3653533E-1,1.30455E4,2E0,-1.53E2,-3.926E3,7.608049E-2,5.5249546E-2,5.6817E4,4.635E5,2.98395E4,-1.5004E4,-4.91E3,3.9039332E-1,-1.5427E4,-2.91E2,-4.54E3,-3.168377E-2,-8.539823E-2,2.5109494E-1,1.9624438E-2,3.7466174E-3,-3.6473837E-2,-4.7421227E-3,2.8061617E-2,3.2083005E-2,-6.3551436E-3,7.12332E-2,-2.5228136E-3,-1.3834481E-2,-6.0042705E-2,-3.025853E-4,4.5061655E-2,-1.9783607E-2,-1.0651828E-3,-1.1045199E-2,-4.2938583E-2,-8.7123044E-2,-4.3551836E-2,-2.6722858E-2,-6.23217E-2,-7.519574E-2,-4.6512496E-2,1.24735E-1,-6.421661E-2,-4.6954323E-2,-1.741816E-2],"split_indices":[8,1,9,5,3,7,1,7,0,5,0,3,7,8,7,0,2,6,5,5,8,8,2,1,2,4,5,7,4,5,5,0,0,0,0,0,0,0,0,0,0,0,0,0,0,0,0,0,0,0,0,0,0,0,0,0,0,0,0,0,0],"split_type":[0,0,0,0,0,0,0,0,0,0,0,0,0,0,0,0,0,0,0,0,0,0,0,0,0,0,0,0,0,0,0,0,0,0,0,0,0,0,0,0,0,0,0,0,0,0,0,0,0,0,0,0,0,0,0,0,0,0,0,0,0],"sum_hessian":[1.7550209E4,4.1909307E3,1.3359278E4,5.1974255E2,3.671188E3,1.1651888E4,1.7073906E3,7.626128E1,4.4348126E2,3.2086875E3,4.6250055E2,1.0682094E4,9.6979364E2,4.1903317E2,1.2883575E3,1.3561494E0,7.490513E1,5.733342E0,4.377479E2,2.6577107E3,5.5097675E2,2.051508E2,2.5734976E2,5.9601523E3,4.7219414E3,7.732451E2,1.965485E2,3.0635104E2,1.1268215E2,1.02628975E1,1.2780946E3,5.9285683E1,1.5619445E1,1.5158468E0,4.2174954E0,3.427475E2,9.500041E1,2.8481833E2,2.3728923E3,1.240483E2,4.2692847E2,3.22278E1,1.72923E2,2.2197888E2,3.5370876E1,4.9571006E3,1.0030517E3,1.7797362E3,2.9422053E3,5.193913E2,2.538538E2,2.7395205E1,1.6915329E2,2.3741586E2,6.8935165E1,6.8043015E1,4.4639145E1,8.865922E0,1.396975E0,1.872346E2,1.09086E3],"tree_param":{"num_deleted":"0","num_feature":"10","num_nodes":"61","size_leaf_vector":"1"}},{"base_weights":[-3.933536E-3,-2.1436934E-1,2.3763243E-2,-3.9818057E-1,-1.6796337E-1,5.856848E-2,-1.4890336E-1,1.236155E0,-4.106271E-1,-6.776048E-2,-2.9076713E-1,1.2686288E-1,-8.924874E-2,1.0576446E0,-1.6597663E-1,2.6313221E-2,1.6667585E-1,-5.802534E-1,-3.4797147E-1,1.6171716E-1,-1.5000464E-1,1.8111287E-1,-3.3455208E-1,1.9904923E-1,1.49858305E-2,-2.6727524E-3,-2.149869E-1,2.4066032E-1,1.4362029E0,-1.8946772E-2,-2.3080128E-1,-4.652797E-2,-8.232965E-2,1.00925915E-1,-3.6439013E-2,1.1553373E-2,1.0789199E-1,-2.6037857E-2,-2.175017E-3,1.6603217E-1,-5.92797E-3,-7.354166E-3,-3.7638158E-2,1.3782541E-2,5.709765E-2,-4.6261244E-2,4.3154494E-3,1.2335478E-2,-1.343858E-2,8.673106E-2,-2.3120016E-2,-3.0867148E-2,1.7401567E-1,1.5745324E-1,-6.149435E-2,-6.4356364E-3,5.2053284E-2,-3.7198957E-2,-1.5997471E-2],"categories":[],"categories_nodes":[],"categories_segments":[],"categories_sizes":[],"default_left":[0,0,0,0,0,1,0,0,0,0,0,0,0,0,0,0,0,1,1,0,0,0,0,0,0,0,0,1,1,0,0,0,0,0,0,0,0,0,0,0,0,0,0,0,0,0,0,0,0,0,0,0,0,0,0,0,0,0,0],"id":22,"left_children":[1,3,5,7,9,11,13,15,17,19,21,23,25,27,29,-1,-1,31,33,35,37,39,41,43,45,47,49,51,53,55,57,-1,-1,-1,-1,-1,-1,-1,-1,-1,-1,-1,-1,-1,-1,-1,-1,-1,-1,-1,-1,-1,-1,-1,-1,-1,-1,-1,-1],"loss_changes":[1.021312E2,1.7317757E1,9.3069534E1,8.84967E0,2.0025349E1,1.3011737E2,5.3694534E1,9.64561E-1,4.1316223E0,1.6978773E1,1.5177174E1,7.119223E1,4.434206E1,1.090778E1,2.442073E1,0E0,0E0,2.6484566E0,7.058689E0,9.935629E0,9.363324E0,2.2419596E1,7.2858963E0,1.2193259E2,4.6547165E1,4.0077557E1,2.9347206E1,1.1017103E1,7.966156E0,1.9269674E1,1.7724571E1,0E0,0E0,0E0,0E0,0E0,0E0,0E0,0E0,0E0,0E0,0E0,0E0,0E0,0E0,0E0,0E0,0E0,0E0,0E0,0E0,0E0,0E0,0E0,0E0,0E0,0E0,0E0,0E0],"parents":[2147483647,0,0,1,1,2,2,3,3,4,4,5,5,6,6,7,7,8,8,9,9,10,10,11,11,12,12,13,13,14,14,17,17,18,18,19,19,20,20,21,21,22,22,23,23,24,24,25,25,26,26,27,27,28,28,29,29,30,30],"right_children":[2,4,6,8,10,12,14,16,18,20,22,24,26,28,30,-1,-1,32,34,36,38,40,42,44,46,48,50,52,54,56,58,-1,-1,-1,-1,-1,-1,-1,-1,-1,-1,-1,-1,-1,-1,-1,-1,-1,-1,-1,-1,-1,-1,-1,-1,-1,-1,-1,-1],"split_conditions":[-3.926E3,2.779695E5,-9.2E1,1.0860547E-1,5.6599367E-1,2.7373648E-1,2.5111634E-1,1.24515E4,1.61595E5,3.2965505E-1,9.225E4,4.545E5,-1.2522E4,3.0942E5,3.2034352E-1,2.6313221E-2,1.6667585E-1,2.7681547E-1,1.35E5,5.5455667E-1,-1.6272E4,4.8147926E-1,4.7597346E-1,5.050665E5,5.050665E5,5.313992E-1,5.4957394E-2,4.9386287E-1,6.9409263E-1,-1.8129E4,2.98512E5,-4.652797E-2,-8.232965E-2,1.00925915E-1,-3.6439013E-2,1.1553373E-2,1.0789199E-1,-2.6037857E-2,-2.175017E-3,1.6603217E-1,-5.92797E-3,-7.354166E-3,-3.7638158E-2,1.3782541E-2,5.709765E-2,-4.6261244E-2,4.3154494E-3,1.2335478E-2,-1.343858E-2,8.673106E-2,-2.3120016E-2,-3.0867148E-2,1.7401567E-1,1.5745324E-1,-6.149435E-2,-6.4356364E-3,5.2053284E-2,-3.7198957E-2,-1.5997471E-2],"split_indices":[5,1,5,7,8,7,7,2,1,9,0,3,4,1,8,0,0,7,3,8,4,7,7,1,1,7,9,9,9,4,1,0,0,0,0,0,0,0,0,0,0,0,0,0,0,0,0,0,0,0,0,0,0,0,0,0,0,0,0],"split_type":[0,0,0,0,0,0,0,0,0,0,0,0,0,0,0,0,0,0,0,0,0,0,0,0,0,0,0,0,0,0,0,0,0,0,0,0,0,0,0,0,0,0,0,0,0,0,0,0,0,0,0,0,0,0,0,0,0,0,0],"sum_hessian":[1.752117E4,2.0370723E3,1.5484098E4,4.0909433E2,1.6279779E3,1.2887053E4,2.5970444E3,2.348885E0,4.0674545E2,8.973382E2,7.306397E2,8.814654E3,4.0723987E3,3.538633E1,2.561658E3,1.2148348E0,1.1340504E0,1.07487045E2,2.992584E2,2.3649727E2,6.6084094E2,6.1772076E1,6.688677E2,5.357232E3,3.457422E3,2.4123892E3,1.6600095E3,1.1722715E1,2.3663616E1,7.842286E2,1.7774294E3,7.494706E1,3.253998E1,2.8541338E0,2.9640427E2,2.262319E2,1.0265374E1,3.5462537E2,3.0621558E2,7.8097286E0,5.396235E1,9.276769E1,5.761E2,4.60119E3,7.560421E2,1.9170197E2,3.2657202E3,1.2328345E3,1.1795547E3,2.3725813E1,1.6362837E3,9.160843E0,2.5618722E0,2.238625E1,1.277366E0,7.24155E2,6.0073563E1,5.923551E2,1.1850743E3],"tree_param":{"num_deleted":"0","num_feature":"10","num_nodes":"59","size_leaf_vector":"1"}},{"base_weights":[-3.7114164E-3,3.4975216E-2,-1.4282152E-1,-1.0227309E-1,1.0540503E-1,-1.16077326E-1,-4.193145E-1,-5.034561E-2,-2.5844917E-1,1.8935165E-1,-9.693677E-3,-3.5387444E-1,-7.657619E-2,-9.767152E-3,-4.6702537E-1,-1.41234845E-2,-2.4825965E-1,4.88291E-2,-2.9370415E-1,1.1921346E-2,3.024543E-1,-1.9489726E-1,1.4890309E-1,1.1717312E-1,-4.0494078E-1,-5.5508547E-2,-4.68705E-1,1.6650395E-1,-6.777031E-1,8.585736E-1,-4.794441E-1,-1.1234052E-2,5.8390475E-3,-1.792611E-2,-5.904443E-2,5.2158404E-2,-1.2473514E-2,-2.5967045E-2,-5.734737E-2,7.6972838E-3,-3.3030197E-2,2.0432143E-2,4.7792222E-2,-3.780231E-2,-1.3842294E-2,-8.504482E-3,2.2211678E-2,7.059914E-2,-1.2098978E-2,-5.073091E-2,-2.0754036E-2,-1.8294695E-3,-2.2541946E-2,1.0227813E-1,-4.9873754E-2,6.270719E-2,-2.131596E-2,-9.139537E-2,3.7858866E-2,1.9310202E-1,-5.5413064E-2,6.3086435E-2,-4.9433663E-2],"categories":[],"categories_nodes":[],"categories_segments":[],"categories_sizes":[],"default_left":[1,0,0,1,1,0,0,1,0,1,0,0,1,0,0,0,0,0,1,1,0,0,0,0,0,1,0,1,0,0,0,0,0,0,0,0,0,0,0,0,0,0,0,0,0,0,0,0,0,0,0,0,0,0,0,0,0,0,0,0,0,0,0],"id":23,"left_children":[1,3,5,7,9,11,13,15,17,19,21,23,25,27,29,31,33,35,37,39,41,43,45,47,49,51,53,55,57,59,61,-1,-1,-1,-1,-1,-1,-1,-1,-1,-1,-1,-1,-1,-1,-1,-1,-1,-1,-1,-1,-1,-1,-1,-1,-1,-1,-1,-1,-1,-1,-1,-1],"loss_changes":[9.416828E1,1.3234921E2,2.8105019E1,3.7644135E1,8.742688E1,3.259503E1,6.549267E0,2.4987053E1,1.2563522E1,1.0499545E2,1.12144455E2,1.19411125E1,2.4588219E1,4.35355E0,5.35672E0,2.1000704E1,1.26257515E1,9.9185295E0,9.747116E0,4.539356E1,5.492276E1,1.8162178E1,3.524754E1,6.9759207E0,8.91349E0,1.7881905E1,7.3088303E0,5.2571554E0,2.2720041E0,5.8369436E0,5.2434006E0,0E0,0E0,0E0,0E0,0E0,0E0,0E0,0E0,0E0,0E0,0E0,0E0,0E0,0E0,0E0,0E0,0E0,0E0,0E0,0E0,0E0,0E0,0E0,0E0,0E0,0E0,0E0,0E0,0E0,0E0,0E0,0E0],"parents":[2147483647,0,0,1,1,2,2,3,3,4,4,5,5,6,6,7,7,8,8,9,9,10,10,11,11,12,12,13,13,14,14,15,15,16,16,17,17,18,18,19,19,20,20,21,21,22,22,23,23,24,24,25,25,26,26,27,27,28,28,29,29,30,30],"right_children":[2,4,6,8,10,12,14,16,18,20,22,24,26,28,30,32,34,36,38,40,42,44,46,48,50,52,54,56,58,60,62,-1,-1,-1,-1,-1,-1,-1,-1,-1,-1,-1,-1,-1,-1,-1,-1,-1,-1,-1,-1,-1,-1,-1,-1,-1,-1,-1,-1,-1,-1,-1,-1],"split_conditions":[6.795E5,2.83419E5,5.79105E4,5.2629495E-1,4.545E5,8.24823E5,3.4912413E-1,6.382704E-1,2.832543E-1,2.11095E4,6.34482E5,1.9862005E-1,7.476525E-1,6.6073585E-1,-2.3616E4,1.87704E5,2.475E5,-1.2462E4,6.9229686E-1,4.05E5,5.050665E5,5.084955E5,2.46015E4,7.2846E5,-7.66E2,6.3470554E-1,9.261717E-2,3.0010775E-1,4.41E5,2.214E5,8.172559E-2,-1.1234052E-2,5.8390475E-3,-1.792611E-2,-5.904443E-2,5.2158404E-2,-1.2473514E-2,-2.5967045E-2,-5.734737E-2,7.6972838E-3,-3.3030197E-2,2.0432143E-2,4.7792222E-2,-3.780231E-2,-1.3842294E-2,-8.504482E-3,2.2211678E-2,7.059914E-2,-1.2098978E-2,-5.073091E-2,-2.0754036E-2,-1.8294695E-3,-2.2541946E-2,1.0227813E-1,-4.9873754E-2,6.270719E-2,-2.131596E-2,-9.139537E-2,3.7858866E-2,1.9310202E-1,-5.5413064E-2,6.3086435E-2,-4.9433663E-2],"split_indices":[3,1,2,9,3,1,7,8,7,2,1,9,7,8,4,1,3,4,8,3,1,1,2,1,5,9,9,9,0,0,9,0,0,0,0,0,0,0,0,0,0,0,0,0,0,0,0,0,0,0,0,0,0,0,0,0,0,0,0,0,0,0,0],"split_type":[0,0,0,0,0,0,0,0,0,0,0,0,0,0,0,0,0,0,0,0,0,0,0,0,0,0,0,0,0,0,0,0,0,0,0,0,0,0,0,0,0,0,0,0,0,0,0,0,0,0,0,0,0,0,0,0,0,0,0,0,0,0,0],"sum_hessian":[1.7495938E4,1.3689598E4,3.8063394E3,4.6423955E3,9.047201E3,3.4719314E3,3.34408E2,3.4849846E3,1.1574113E3,5.2312056E3,3.815996E3,4.9344293E2,2.9784883E3,3.5018246E1,2.9938974E2,2.9467441E3,5.382403E2,1.1908612E2,1.0383251E3,2.0369058E3,3.1942998E3,1.7602319E3,2.0557644E3,4.8135513E1,4.4530743E2,2.8277075E3,1.5078078E2,2.8300377E1,6.71787E0,2.146369E0,2.9724338E2,1.2513269E3,1.6954174E3,4.491891E2,8.905119E1,3.1441235E1,8.764488E1,9.2743195E2,1.1089314E2,1.7122146E3,3.2469107E2,2.0499827E3,1.1443171E3,4.1354877E2,1.3466831E3,4.8996457E2,1.5657998E3,1.3296875E1,3.483864E1,2.9220517E2,1.5310226E2,2.3205654E3,5.0714212E2,2.3237183E0,1.4845706E2,1.2493239E1,1.58071375E1,5.6001015E0,1.1177686E0,1.0115558E0,1.1348133E0,3.3867137E0,2.9385666E2],"tree_param":{"num_deleted":"0","num_feature":"10","num_nodes":"63","size_leaf_vector":"1"}},{"base_weights":[-3.5588213E-3,-1.2799424E-1,3.6749918E-2,-8.6080976E-2,-2.9345354E-1,7.718125E-2,-1.3194558E-1,-2.514017E-1,-3.8475174E-2,-4.1311347E-1,-1.5824889E-1,1.3834444E-1,-6.0585115E-2,8.8051486E-1,-1.4762312E-1,1.0297859E0,-2.722352E-1,7.667088E-2,-1.04468115E-1,-7.780019E-2,-4.4325805E-1,-7.747166E-3,-3.978245E-1,1.8301311E-1,-6.3764215E-2,3.9693505E-2,-1.931271E-1,7.3356336E-1,2.9970497E-1,-8.749249E-2,-2.881186E-1,1.8399452E-1,2.189067E-2,-8.4397644E-2,-2.4801863E-2,-1.2645188E-2,1.66166E-2,-8.903745E-3,-6.1912276E-2,-6.848992E-2,1.8502237E-2,-3.5995834E-2,-5.4858603E-2,3.753008E-2,-1.2058836E-2,-4.4749353E-2,1.6942183E-2,2.5908945E-2,6.8884282E-3,1.3093621E-3,-2.5691707E-2,1.1178593E-2,-1.48998145E-2,8.242202E-2,-2.1022025E-2,1.7415266E-2,1.1489983E-1,2.7397193E-3,-1.689281E-2,-2.0077407E-2,-4.1722E-2],"categories":[],"categories_nodes":[],"categories_segments":[],"categories_sizes":[],"default_left":[0,1,0,0,1,1,0,0,0,1,0,0,0,0,1,0,0,0,0,0,0,0,0,1,0,0,0,0,0,0,0,0,0,0,0,0,0,0,0,0,0,0,0,0,0,0,0,0,0,0,0,0,0,0,0,0,0,0,0,0,0],"id":24,"left_children":[1,3,5,7,9,11,13,15,17,19,21,23,25,27,29,31,33,35,37,39,41,43,45,47,49,51,53,55,-1,57,59,-1,-1,-1,-1,-1,-1,-1,-1,-1,-1,-1,-1,-1,-1,-1,-1,-1,-1,-1,-1,-1,-1,-1,-1,-1,-1,-1,-1,-1,-1],"loss_changes":[8.765039E1,2.9625908E1,9.0036285E1,2.6850346E1,1.3908966E1,8.973053E1,4.064111E1,2.064241E1,2.0152515E1,4.590851E0,1.4677607E1,6.658743E1,4.3529896E1,9.950556E0,2.1214607E1,7.753538E0,